{"learner":{"attributes":{"scikit_learn":"{\"_estimator_type\": \"classifier\"}"},"feature_names":["salary_delay_days","savings_drop_pct","utility_payment_delay_days","discretionary_spend_drop_pct","atm_withdrawal_increase","upi_lending_txn_count","failed_autodebit_count","stress_index","liquidity_ratio","payment_reliability","cash_flow_pressure","savings_behavior","digital_stress"],"feature_types":["float","float","float","float","float","float","float","float","float","float","float","float","float"],"gradient_booster":{"model":{"cats":{"enc":[],"feature_segments":[],"sorted_idx":[]},"gbtree_model_param":{"num_parallel_tree":"1","num_trees":"100"},"iteration_indptr":[0,1,2,3,4,5,6,7,8,9,10,11,12,13,14,15,16,17,18,19,20,21,22,23,24,25,26,27,28,29,30,31,32,33,34,35,36,37,38,39,40,41,42,43,44,45,46,47,48,49,50,51,52,53,54,55,56,57,58,59,60,61,62,63,64,65,66,67,68,69,70,71,72,73,74,75,76,77,78,79,80,81,82,83,84,85,86,87,88,89,90,91,92,93,94,95,96,97,98,99,100],"tree_info":[0,0,0,0,0,0,0,0,0,0,0,0,0,0,0,0,0,0,0,0,0,0,0,0,0,0,0,0,0,0,0,0,0,0,0,0,0,0,0,0,0,0,0,0,0,0,0,0,0,0,0,0,0,0,0,0,0,0,0,0,0,0,0,0,0,0,0,0,0,0,0,0,0,0,0,0,0,0,0,0,0,0,0,0,0,0,0,0,0,0,0,0,0,0,0,0,0,0,0,0],"trees":[{"base_weights":[-4.717146E-2,-1.8395802E0,1.5355607E0,-1.9155378E0,-4.7619045E-1,4.3373495E-1,1.8058897E0,-1.9576721E-1,1.9047633E-3,-1.3333334E-1,1.018868E-1,1.0262172E0,-1.4285715E-1,1.8456319E-1,1.9047633E-3,1.7020057E-1,-1.9409281E-1,1.2180451E-1,-1.3333334E-1],"categories":[],"categories_nodes":[],"categories_segments":[],"categories_sizes":[],"default_left":[0,0,0,0,0,0,0,0,0,0,0,0,0,0,0,0,0,0,0],"id":0,"left_children":[1,3,5,7,9,11,13,-1,-1,-1,-1,15,-1,-1,-1,-1,17,-1,-1],"loss_changes":[3.1046512E2,4.401245E0,1.653244E1,3.971817E0,6.533693E0,1.5555385E1,3.2574005E0,0E0,0E0,0E0,0E0,8.7990885E0,0E0,0E0,0E0,0E0,8.956315E0,0E0,0E0],"parents":[2147483647,0,0,1,1,2,2,3,3,4,4,5,5,6,6,11,11,16,16],"right_children":[2,4,6,8,10,12,14,-1,-1,-1,-1,16,-1,-1,-1,-1,18,-1,-1],"split_conditions":[3.5103166E-1,2.6396158E-1,6.470699E-1,1.8895577E0,4.4456995E-1,9.405767E-1,1.7917329E0,-1.9576721E-1,1.9047633E-3,-1.3333334E-1,1.018868E-1,6.094698E-1,-1.4285715E-1,1.8456319E-1,1.9047633E-3,1.7020057E-1,-1.201967E0,1.2180451E-1,-1.3333334E-1],"split_indices":[7,7,7,11,10,12,8,0,0,0,0,10,0,0,0,0,12,0,0],"split_type":[0,0,0,0,0,0,0,0,0,0,0,0,0,0,0,0,0,0,0],"sum_hessian":[1.0744231E2,5.0307693E1,5.7134617E1,4.726923E1,3.0384617E0,1.1769231E1,4.5365387E1,4.625E1,1.0192308E0,2E0,1.0384616E0,9.269231E0,2.5E0,4.4346153E1,1.0192308E0,5.711539E0,3.5576923E0,1.5576923E0,2E0],"tree_param":{"num_deleted":"0","num_feature":"13","num_nodes":"19","size_leaf_vector":"1"}},{"base_weights":[-4.658039E-2,-1.5949335E0,1.4041523E0,-1.7822395E-1,-4.902621E-1,1.7289531E-1,1.6234224E0,9.0558577E-1,-1.5057205E-1,-4.6053866E-1,1.3281846E-1,-4.7662478E-2,1.7048979E-1,-1.0155649E-2,1.3516057E-1,8.6965874E-2,-1.1132488E0,1.0734601E-3,-1.4015952E-1],"categories":[],"categories_nodes":[],"categories_segments":[],"categories_sizes":[],"default_left":[0,0,0,0,0,0,0,0,0,0,0,0,0,0,0,0,0,0,0],"id":1,"left_children":[1,3,5,-1,7,9,11,13,-1,15,-1,-1,-1,-1,-1,-1,17,-1,-1],"loss_changes":[2.375485E2,9.708008E0,1.4464157E1,0E0,1.38280735E1,7.4723845E0,8.72435E0,2.0812948E0,0E0,6.8701124E0,0E0,0E0,0E0,0E0,0E0,0E0,1.6350975E0,0E0,0E0],"parents":[2147483647,0,0,1,1,2,2,4,4,5,5,6,6,7,7,9,9,16,16],"right_children":[2,4,6,-1,8,10,12,14,-1,16,-1,-1,-1,-1,-1,-1,18,-1,-1],"split_conditions":[3.5103166E-1,8.982147E-2,6.470699E-1,-1.7822395E-1,4.329471E-1,9.4413E-1,-1.3454269E0,4.584664E-1,-1.5057205E-1,-4.615717E-1,1.3281846E-1,-4.7662478E-2,1.7048979E-1,-1.0155649E-2,1.3516057E-1,8.6965874E-2,-1.1299319E0,1.0734601E-3,-1.4015952E-1],"split_indices":[7,7,7,0,5,1,1,1,0,5,0,0,0,0,0,0,3,0,0],"split_type":[0,0,0,0,0,0,0,0,0,0,0,0,0,0,0,0,0,0,0],"sum_hessian":[1.0375652E2,5.0141537E1,5.3614986E1,4.2347763E1,7.7937727E0,8.375115E0,4.5239872E1,3.3277085E0,4.4660645E0,5.7976723E0,2.577443E0,1.5084829E0,4.3731388E1,1.2584195E0,2.069289E0,1.799E0,3.9986722E0,1.0129461E0,2.9857259E0],"tree_param":{"num_deleted":"0","num_feature":"13","num_nodes":"19","size_leaf_vector":"1"}},{"base_weights":[9.300558E-3,-1.274147E0,1.5019745E0,-1.6513552E-1,-9.8356195E-2,-1.4714684E-1,1.587894E0,9.850447E-1,-1.2779139E0,-1.0798521E-1,9.514989E-2,9.104933E-1,1.6448824E-1,5.0332077E-2,1.5275282E-1,-1.4736389E-1,-1.4720557E-3,-3.3661555E-2,1.3249813E-1,1.1583698E-1,-1.0984202E-1],"categories":[],"categories_nodes":[],"categories_segments":[],"categories_sizes":[],"default_left":[0,0,0,0,0,0,0,0,0,0,0,0,0,0,0,0,0,0,0,0,0],"id":2,"left_children":[1,3,5,-1,7,9,11,13,15,-1,-1,17,-1,19,-1,-1,-1,-1,-1,-1,-1],"loss_changes":[1.971679E2,2.4382492E1,6.975075E0,0E0,1.9795513E1,4.3795843E0,2.5136566E-1,4.043279E0,1.8028574E0,0E0,0E0,3.4211397E0,0E0,6.3868165E0,0E0,0E0,0E0,0E0,0E0,0E0,0E0],"parents":[2147483647,0,0,1,1,2,2,4,4,5,5,6,6,7,7,8,8,11,11,13,13],"right_children":[2,4,6,-1,8,10,12,14,16,-1,-1,18,-1,20,-1,-1,-1,-1,-1,-1,-1],"split_conditions":[5.2517176E-1,1.5947752E-1,-1.3454269E0,-1.6513552E-1,4.329471E-1,9.431081E-1,-8.5976326E-1,-5.7039835E-2,1.0135105E0,-1.0798521E-1,9.514989E-2,1.0998342E0,1.6448824E-1,-1.1868038E0,1.5275282E-1,-1.4736389E-1,-1.4720557E-3,-3.3661555E-2,1.3249813E-1,1.1583698E-1,-1.0984202E-1],"split_indices":[7,7,1,0,5,7,1,11,1,0,0,7,0,3,0,0,0,0,0,0,0],"split_type":[0,0,0,0,0,0,0,0,0,0,0,0,0,0,0,0,0,0,0,0,0],"sum_hessian":[1.0091948E2,5.4341427E1,4.6578056E1,4.083621E1,1.3505217E1,2.2712646E0,4.430679E1,7.125493E0,6.3797235E0,1.2376536E0,1.033611E0,4.7555876E0,3.9551205E1,3.0180678E0,4.107425E0,5.3795877E0,1.000136E0,1.2331549E0,3.5224326E0,1.5319966E0,1.4860711E0],"tree_param":{"num_deleted":"0","num_feature":"13","num_nodes":"21","size_leaf_vector":"1"}},{"base_weights":[-9.566215E-2,-1.0805078E0,8.436292E-1,-1.4241785E0,1.2908009E-1,-2.9445824E-1,1.1371891E0,9.766461E-3,-1.5061954E0,-7.1363354E-1,1.2123286E-1,1.1031053E-1,-9.630649E-1,-3.351962E-1,1.2924839E0,-1.657307E-2,-1.5461089E-1,-1.3286003E-1,8.216395E-2,1.7986095E-1,-1.4532958E-1,-1.1680924E-1,9.457467E-2,1.4987788E-1,6.1899716E-1,-2.6318228E-2,5.418725E-2,1.2871774E-1,-3.852294E-2],"categories":[],"categories_nodes":[],"categories_segments":[],"categories_sizes":[],"default_left":[0,0,0,0,0,0,0,0,0,0,0,0,0,0,0,0,0,0,0,0,0,0,0,0,0,0,0,0,0],"id":3,"left_children":[1,3,5,7,9,11,13,-1,15,17,-1,-1,19,21,23,-1,-1,-1,-1,25,-1,-1,-1,-1,27,-1,-1,-1,-1],"loss_changes":[9.568791E1,2.1157127E1,1.8042557E1,5.0615005E0,1.1892618E1,1.1959891E1,1.0114281E1,0E0,1.7458496E0,8.100763E0,0E0,0E0,4.9804015E0,6.261654E0,4.422119E0,0E0,0E0,0E0,0E0,6.908183E-1,0E0,0E0,0E0,0E0,7.697455E0,0E0,0E0,0E0,0E0],"parents":[2147483647,0,0,1,1,2,2,3,3,4,4,5,5,6,6,8,8,9,9,12,12,13,13,14,14,19,19,24,24],"right_children":[2,4,6,8,10,12,14,-1,16,18,-1,-1,20,22,24,-1,-1,-1,-1,26,-1,-1,-1,-1,28,-1,-1,-1,-1],"split_conditions":[2.7967012E-1,1.1522715E0,-7.210023E-1,-1.5782592E0,5.1026374E-1,-6.498714E-1,-1.0053711E0,9.766461E-3,-8.6134094E-1,-1.1857743E-1,1.2123286E-1,1.1031053E-1,-6.562926E-1,1.2690691E0,5.879789E-1,-1.657307E-2,-1.5461089E-1,-1.3286003E-1,8.216395E-2,-5.001595E-1,-1.4532958E-1,-1.1680924E-1,9.457467E-2,1.4987788E-1,-6.102614E-1,-2.6318228E-2,5.418725E-2,1.2871774E-1,-3.852294E-2],"split_indices":[10,1,1,9,2,9,2,0,8,0,0,0,8,10,9,0,0,0,0,2,0,0,0,0,8,0,0,0,0],"split_type":[0,0,0,0,0,0,0,0,0,0,0,0,0,0,0,0,0,0,0,0,0,0,0,0,0,0,0,0,0],"sum_hessian":[1.0145463E2,4.9452946E1,5.2001682E1,3.8372932E1,1.1080012E1,1.0662343E1,4.133934E1,1.9525297E0,3.6420406E1,6.4238133E0,4.6561985E0,3.2400115E0,7.4223313E0,3.8336034E0,3.7505737E1,1.2020665E0,3.5218338E1,4.682724E0,1.7410891E0,2.418032E0,5.004299E0,2.376471E0,1.4571322E0,2.7773174E1,9.732564E0,1.210085E0,1.207947E0,5.6749043E0,4.0576596E0],"tree_param":{"num_deleted":"0","num_feature":"13","num_nodes":"29","size_leaf_vector":"1"}},{"base_weights":[1.287886E-2,-1.4061452E0,1.062631E0,-1.4756212E-1,-3.086435E-1,7.4128765E-3,1.2991186E0,4.545531E-2,-9.633065E-2,8.533227E-1,-1.3228564E-1,-3.7685627E-1,1.4060235E0,-9.3684636E-2,1.3168709E-1,-1.15548365E-1,8.587138E-2,1.4423934E0,1.7902171E-2,4.2292878E-2,1.4608233E-1],"categories":[],"categories_nodes":[],"categories_segments":[],"categories_sizes":[],"default_left":[0,0,0,0,0,0,0,0,0,0,0,0,0,0,0,0,0,0,0,0,0],"id":4,"left_children":[1,3,5,-1,7,9,11,-1,-1,13,-1,15,17,-1,-1,-1,-1,19,-1,-1,-1],"loss_changes":[1.5470389E2,2.9120636E0,1.4885094E1,0E0,2.3833487E0,1.4557321E1,9.265106E0,0E0,0E0,7.79152E0,0E0,4.5633564E0,1.7964478E0,0E0,0E0,0E0,0E0,2.1966553E-1,0E0,0E0,0E0],"parents":[2147483647,0,0,1,1,2,2,4,4,5,5,6,6,9,9,11,11,12,12,17,17],"right_children":[2,4,6,-1,8,10,12,-1,-1,14,-1,16,18,-1,-1,-1,-1,20,-1,-1,-1],"split_conditions":[1.9430554E-1,1.5947752E-1,5.2517176E-1,-1.4756212E-1,-6.2700003E-1,4.329471E-1,-1.3454269E0,4.545531E-2,-9.633065E-2,-3.740997E-1,-1.3228564E-1,1.0301781E0,1.7917329E0,-9.3684636E-2,1.3168709E-1,-1.15548365E-1,8.587138E-2,-1.2760464E0,1.7902171E-2,4.2292878E-2,1.4608233E-1],"split_indices":[7,7,7,0,8,5,1,0,0,1,0,7,8,0,0,0,0,1,0,0,0],"split_type":[0,0,0,0,0,0,0,0,0,0,0,0,0,0,0,0,0,0,0,0,0],"sum_hessian":[1.0185128E2,4.316398E1,5.8687298E1,4.02702E1,2.8937798E0,1.093339E1,4.775391E1,1.4772693E0,1.4165105E0,6.902602E0,4.030787E0,2.7120023E0,4.504191E1,1.2097309E0,5.692871E0,1.703386E0,1.0086164E0,4.3574753E1,1.4671539E0,1.1989982E0,4.2375755E1],"tree_param":{"num_deleted":"0","num_feature":"13","num_nodes":"21","size_leaf_vector":"1"}},{"base_weights":[-3.706171E-3,-1.0702686E0,1.2661779E0,-1.36384E0,-1.3004225E-1,4.5202845E-1,1.3939796E-1,-1.4059314E-1,2.6862586E-3,7.21788E-1,-1.0878904E0,-8.936969E-1,1.2431105E-1,-9.7134076E-2,1.2389465E-1,-1.269331E-1,-1.285317E-2,-1.8098913E-2,-1.188854E-1],"categories":[],"categories_nodes":[],"categories_segments":[],"categories_sizes":[],"default_left":[0,0,0,0,0,0,0,0,0,0,0,0,0,0,0,0,0,0,0],"id":5,"left_children":[1,3,5,7,9,11,-1,-1,-1,13,15,17,-1,-1,-1,-1,-1,-1,-1],"loss_changes":[1.344734E2,1.4717121E1,4.0858383E0,2.4386902E0,1.2163221E1,9.23301E0,0E0,0E0,0E0,8.19268E0,1.0488482E0,5.0137687E-1,0E0,0E0,0E0,0E0,0E0,0E0,0E0],"parents":[2147483647,0,0,1,1,2,2,3,3,4,4,5,5,9,9,10,10,11,11],"right_children":[2,4,6,8,10,12,-1,-1,-1,14,16,18,-1,-1,-1,-1,-1,-1,-1],"split_conditions":[5.2517176E-1,1.7689154E-1,-7.903828E-1,1.7990183E0,4.329471E-1,1.0998342E0,1.3939796E-1,-1.4059314E-1,2.6862586E-3,-3.740997E-1,1.0135105E0,1.3274659E0,1.2431105E-1,-9.7134076E-2,1.2389465E-1,-1.269331E-1,-1.285317E-2,-1.8098913E-2,-1.188854E-1],"split_indices":[7,7,1,11,5,7,0,0,0,1,1,5,0,0,0,0,0,0,0],"split_type":[0,0,0,0,0,0,0,0,0,0,0,0,0,0,0,0,0,0,0],"sum_hessian":[9.728499E1,5.2960884E1,4.432411E1,4.0015965E1,1.2944921E1,6.6293488E0,3.7694756E1,3.8829784E1,1.1861815E0,6.9820848E0,5.962836E0,2.406274E0,4.223075E0,1.4281683E0,5.5539165E0,4.74275E0,1.2200856E0,1.1771172E0,1.229157E0],"tree_param":{"num_deleted":"0","num_feature":"13","num_nodes":"19","size_leaf_vector":"1"}},{"base_weights":[-6.912952E-2,-1.3458225E-1,7.9312134E-1,-4.5291197E-2,1.1399562E0,6.347752E-1,-1.2472387E-1,-2.623463E-1,1.2441801E0,-1.005003E-1,1.0675623E0,-8.933037E-2,4.7662538E-2,1.2658858E0,3.132521E-2,1.2212711E-1,-9.3060965E-4,5.9289414E-2,1.3067526E-1],"categories":[],"categories_nodes":[],"categories_segments":[],"categories_sizes":[],"default_left":[0,0,0,0,0,0,0,0,0,0,0,0,0,0,0,0,0,0,0],"id":6,"left_children":[1,-1,3,5,7,9,-1,11,13,-1,15,-1,-1,17,-1,-1,-1,-1,-1],"loss_changes":[9.630118E1,0E0,1.5250053E1,1.4079571E1,5.7354927E0,8.911055E0,0E0,2.0046415E0,3.030777E-1,0E0,1.5380421E0,0E0,0E0,1.4674377E-1,0E0,0E0,0E0,0E0,0E0],"parents":[2147483647,0,0,2,2,3,3,4,4,5,5,7,7,8,8,10,10,13,13],"right_children":[2,-1,4,6,8,10,-1,12,14,-1,16,-1,-1,18,-1,-1,-1,-1,-1],"split_conditions":[8.982147E-2,-1.3458225E-1,5.2517176E-1,6.727587E-1,-1.3454269E0,-3.740997E-1,-1.2472387E-1,9.431081E-1,1.7498863E0,-1.005003E-1,4.329471E-1,-8.933037E-2,4.7662538E-2,-1.0679048E0,3.132521E-2,1.2212711E-1,-9.3060965E-4,5.9289414E-2,1.3067526E-1],"split_indices":[7,0,7,12,1,1,0,7,8,0,5,0,0,1,0,0,0,0,0],"split_type":[0,0,0,0,0,0,0,0,0,0,0,0,0,0,0,0,0,0,0],"sum_hessian":[8.5510925E1,3.424508E1,5.1265846E1,1.5256165E1,3.600968E1,1.0044708E1,5.2114563E0,2.3862467E0,3.3623436E1,1.8214163E0,8.223292E0,1.17454E0,1.2117066E0,3.2505714E1,1.1177211E0,7.0787926E0,1.1444993E0,2.748675E0,2.975704E1],"tree_param":{"num_deleted":"0","num_feature":"13","num_nodes":"19","size_leaf_vector":"1"}},{"base_weights":[1.9057559E-2,-1.1090001E0,1.1145823E0,-1.2595652E0,-3.0448106E-1,-1.9232497E-1,1.214727E0,-1.3034421E-1,4.294844E-3,8.751724E-2,-9.790396E-1,-1.0850539E-1,8.806028E-2,1.2513492E0,9.737052E-3,-2.1606239E-2,-1.1187785E-1,2.4809994E-2,1.2775709E-1],"categories":[],"categories_nodes":[],"categories_segments":[],"categories_sizes":[],"default_left":[0,0,0,0,0,0,0,0,0,0,0,0,0,0,0,0,0,0,0],"id":7,"left_children":[1,3,5,7,9,11,13,-1,-1,-1,15,-1,-1,17,-1,-1,-1,-1,-1],"loss_changes":[1.0902409E2,4.882515E0,6.0900917E0,2.1306E0,7.359809E0,4.8329144E0,1.5844727E0,0E0,0E0,0E0,3.6291885E-1,0E0,0E0,7.429657E-1,0E0,0E0,0E0,0E0,0E0],"parents":[2147483647,0,0,1,1,2,2,3,3,4,4,5,5,6,6,10,10,13,13],"right_children":[2,4,6,8,10,12,14,-1,-1,-1,16,-1,-1,18,-1,-1,-1,-1,-1],"split_conditions":[4.555157E-1,1.9430554E-1,-1.2760464E0,1.7990183E0,-3.9851314E-1,1.0998342E0,1.7498863E0,-1.3034421E-1,4.294844E-3,8.751724E-2,4.329471E-1,-1.0850539E-1,8.806028E-2,5.2517176E-1,9.737052E-3,-2.1606239E-2,-1.1187785E-1,2.4809994E-2,1.2775709E-1],"split_indices":[7,7,1,11,12,7,8,0,0,0,5,0,0,7,0,0,0,0,0],"split_type":[0,0,0,0,0,0,0,0,0,0,0,0,0,0,0,0,0,0,0],"sum_hessian":[8.6220184E1,4.2473297E1,4.374689E1,3.530111E1,7.172188E0,3.0481064E0,4.0698788E1,3.4150005E1,1.1511024E0,2.5010338E0,4.671154E0,1.6575996E0,1.3905067E0,3.9291073E1,1.4077129E0,1.1172314E0,3.5539227E0,1.2672507E0,3.8023823E1],"tree_param":{"num_deleted":"0","num_feature":"13","num_nodes":"19","size_leaf_vector":"1"}},{"base_weights":[-9.3832975E-3,-1.209956E0,8.4446836E-1,-1.255198E-1,4.063061E-3,1.8415314E-1,1.1322143E0,1.2717985E-1,-4.934789E-1,6.932827E-2,1.2104263E0,-1.2900047E-1,5.635695E-1,4.3330055E-2,-3.3034876E-2,6.049702E-1,1.2601821E-1,1.0315315E-1,-1.6208617E-2,-6.812529E-3,9.061491E-2],"categories":[],"categories_nodes":[],"categories_segments":[],"categories_sizes":[],"default_left":[0,0,0,0,0,0,0,0,0,0,0,0,0,0,0,0,0,0,0,0,0],"id":8,"left_children":[1,3,5,-1,-1,7,9,-1,11,13,15,-1,17,-1,-1,19,-1,-1,-1,-1,-1],"loss_changes":[8.3612755E1,1.9688225E0,8.849232E0,0E0,0E0,1.2171617E1,2.6600952E0,0E0,9.459E0,6.265694E-1,1.6201782E-1,0E0,1.916915E0,0E0,0E0,9.240129E-1,0E0,0E0,0E0,0E0,0E0],"parents":[2147483647,0,0,1,1,2,2,5,5,6,6,8,8,9,9,10,10,12,12,15,15],"right_children":[2,4,6,-1,-1,8,10,-1,12,14,16,-1,18,-1,-1,20,-1,-1,-1,-1,-1],"split_conditions":[1.5947752E-1,1.844288E0,6.470699E-1,-1.255198E-1,4.063061E-3,-4.615717E-1,-1.2760464E0,1.2717985E-1,5.9722745E-1,6.1020046E-1,-7.903828E-1,-1.2900047E-1,4.329471E-1,4.3330055E-2,-3.3034876E-2,1.5988687E0,1.2601821E-1,1.0315315E-1,-1.6208617E-2,-6.812529E-3,9.061491E-2],"split_indices":[7,11,7,0,0,5,1,0,1,4,1,0,5,0,0,10,0,0,0,0,0],"split_type":[0,0,0,0,0,0,0,0,0,0,0,0,0,0,0,0,0,0,0,0,0],"sum_hessian":[7.956785E1,3.2896336E1,4.6671513E1,3.174425E1,1.1520851E0,1.466302E1,3.2008495E1,5.2920666E0,9.370954E0,2.3231905E0,2.9685303E1,5.218348E0,4.152605E0,1.1718762E0,1.1513144E0,3.2535121E0,2.6431791E1,2.268302E0,1.8843031E0,1.2449703E0,2.0085416E0],"tree_param":{"num_deleted":"0","num_feature":"13","num_nodes":"21","size_leaf_vector":"1"}},{"base_weights":[-9.388485E-4,-9.237809E-1,1.0374712E0,-1.2196747E-1,-1.9209391E-1,1.1220824E0,-5.6732472E-2,5.526443E-1,-1.14268675E-1,5.200103E-1,1.2049731E-1,-8.936437E-2,1.0175002E0,-3.0275723E-2,1.045244E-1,1.20078675E-1,1.4076605E-2],"categories":[],"categories_nodes":[],"categories_segments":[],"categories_sizes":[],"default_left":[0,0,0,0,0,0,0,0,0,0,0,0,0,0,0,0,0],"id":9,"left_children":[1,3,5,-1,7,9,-1,11,-1,13,-1,-1,15,-1,-1,-1,-1],"loss_changes":[7.584818E1,8.838478E0,5.693619E0,0E0,1.0014515E1,1.1557426E0,0E0,6.3588395E0,0E0,2.944369E0,0E0,0E0,8.9181757E-1,0E0,0E0,0E0,0E0],"parents":[2147483647,0,0,1,1,2,2,4,4,5,5,7,7,9,9,12,12],"right_children":[2,4,6,-1,8,10,-1,12,-1,14,-1,-1,16,-1,-1,-1,-1],"split_conditions":[5.2517176E-1,8.982147E-2,1.875426E0,-1.2196747E-1,4.329471E-1,-8.5976326E-1,-5.6732472E-2,-3.740997E-1,-1.14268675E-1,1.0998342E0,1.2049731E-1,-8.936437E-2,9.0955055E-1,-3.0275723E-2,1.045244E-1,1.20078675E-1,1.4076605E-2],"split_indices":[7,7,8,0,5,1,0,1,0,7,0,0,0,0,0,0,0],"split_type":[0,0,0,0,0,0,0,0,0,0,0,0,0,0,0,0,0],"sum_hessian":[7.714952E1,4.090625E1,3.6243275E1,2.865233E1,1.225392E1,3.4713818E1,1.529455E0,7.1056542E0,5.148265E0,5.081089E0,2.9632729E1,1.5039775E0,5.601677E0,2.1448317E0,2.9362576E0,4.3273954E0,1.2742813E0],"tree_param":{"num_deleted":"0","num_feature":"13","num_nodes":"17","size_leaf_vector":"1"}},{"base_weights":[2.7718704E-2,-1.1891001E-1,7.148822E-1,2.1129893E-2,1.0345906E0,8.028001E-1,-6.725037E-1,1.0975305E0,-4.1974958E-2,-7.649143E-3,9.51628E-1,-1.0745023E0,8.1593566E-2,1.7643416E-1,1.1733465E0,1.2088311E-1,1.5074304E-2,-2.0440323E-2,-1.1881043E-1,-4.5034744E-2,7.6914355E-2,3.1404167E-2,1.2008184E-1],"categories":[],"categories_nodes":[],"categories_segments":[],"categories_sizes":[],"default_left":[0,0,0,0,0,0,0,0,0,0,0,0,0,0,0,0,0,0,0,0,0,0,0],"id":10,"left_children":[1,-1,3,5,7,9,11,13,-1,-1,15,17,-1,19,21,-1,-1,-1,-1,-1,-1,-1,-1],"loss_changes":[6.442683E1,0E0,1.089455E1,9.5116415E0,3.542759E0,1.1505427E0,6.448241E0,2.066105E0,0E0,0E0,1.2840004E0,5.244818E-1,0E0,1.7032721E0,3.2868958E-1,0E0,0E0,0E0,0E0,0E0,0E0,0E0,0E0],"parents":[2147483647,0,0,2,2,3,3,4,4,5,5,6,6,7,7,10,10,11,11,13,13,14,14],"right_children":[2,-1,4,6,8,10,12,14,-1,-1,16,18,-1,20,22,-1,-1,-1,-1,-1,-1,-1,-1],"split_conditions":[8.982147E-2,-1.1891001E-1,6.470699E-1,-1.3069516E-1,1.7917329E0,-5.8224124E-1,1.0135105E0,-1.2760464E0,-4.1974958E-2,-7.649143E-3,-4.615717E-1,-1.1299319E0,8.1593566E-2,1.2739743E0,-1.0053711E0,1.2088311E-1,1.5074304E-2,-2.0440323E-2,-1.1881043E-1,-4.5034744E-2,7.6914355E-2,3.1404167E-2,1.2008184E-1],"split_indices":[7,0,7,12,8,1,1,1,0,0,5,3,0,7,2,0,0,0,0,0,0,0,0],"split_type":[0,0,0,0,0,0,0,0,0,0,0,0,0,0,0,0,0,0,0,0,0,0,0],"sum_hessian":[7.50348E1,2.6817078E1,4.8217724E1,1.5547172E1,3.267055E1,7.2357125E0,8.31146E0,3.1550472E1,1.1200775E0,1.1177812E0,6.1179314E0,6.7630043E0,1.5484548E0,2.6524704E0,2.8898003E1,4.245217E0,1.8727145E0,1.1042944E0,5.65871E0,1.4059193E0,1.2465509E0,1.2803656E0,2.7617638E1],"tree_param":{"num_deleted":"0","num_feature":"13","num_nodes":"23","size_leaf_vector":"1"}},{"base_weights":[6.1452776E-2,-1.1148489E0,8.0560726E-1,-1.1677724E-1,8.626295E-3,1.4307179E-1,1.0854592E0,6.1774987E-1,-1.0557091E-1,2.5470037E-2,1.1157016E-1,-3.795711E-2,8.619061E-1,1.01610556E-1,2.6548717E-2],"categories":[],"categories_nodes":[],"categories_segments":[],"categories_sizes":[],"default_left":[0,0,0,0,0,0,0,0,0,0,0,0,0,0,0],"id":11,"left_children":[1,3,5,-1,-1,7,9,11,-1,-1,-1,-1,13,-1,-1],"loss_changes":[5.907436E1,1.7644272E0,7.5000534E0,0E0,0E0,8.284537E0,4.4130325E-1,2.8204033E0,0E0,0E0,0E0,0E0,5.148282E-1,0E0,0E0],"parents":[2147483647,0,0,1,1,2,2,5,5,6,6,7,7,12,12],"right_children":[2,4,6,-1,-1,8,10,12,-1,-1,-1,-1,14,-1,-1],"split_conditions":[1.9430554E-1,1.7537485E0,6.470699E-1,-1.1677724E-1,8.626295E-3,6.727587E-1,-1.3454269E0,-5.128607E-1,-1.0557091E-1,2.5470037E-2,1.1157016E-1,-3.795711E-2,5.879789E-1,1.01610556E-1,2.6548717E-2],"split_indices":[7,11,7,0,0,12,1,1,0,0,0,0,9,0,0],"split_type":[0,0,0,0,0,0,0,0,0,0,0,0,0,0,0],"sum_hessian":[6.5460526E1,2.5172173E1,4.0288357E1,2.4136427E1,1.035746E0,1.2412834E1,2.7875523E1,9.239126E0,3.1737075E0,1.3100585E0,2.6565464E1,1.7079455E0,7.5311813E0,5.4249306E0,2.1062508E0],"tree_param":{"num_deleted":"0","num_feature":"13","num_nodes":"15","size_leaf_vector":"1"}},{"base_weights":[2.1848023E-2,-7.84736E-1,9.5835423E-1,-1.1338209E-1,-1.07225716E-1,1.0282028E0,-4.515695E-2,6.2347025E-1,-6.925327E-1,2.2127682E-1,1.1420138E-1,-1.311599E-2,1.0026705E-1,-1.1328856E-1,6.5637216E-2,-1.0777467E-1,9.526395E-2],"categories":[],"categories_nodes":[],"categories_segments":[],"categories_sizes":[],"default_left":[0,0,0,0,0,0,0,0,0,0,0,0,0,0,0,0,0],"id":12,"left_children":[1,3,5,-1,7,9,-1,11,13,15,-1,-1,-1,-1,-1,-1,-1],"loss_changes":[4.8622993E1,8.061304E0,3.3966236E0,0E0,5.935787E0,2.3807354E0,0E0,1.9200025E0,5.2694516E0,5.572557E0,0E0,0E0,0E0,0E0,0E0,0E0,0E0],"parents":[2147483647,0,0,1,1,2,2,4,4,5,5,7,7,8,8,9,9],"right_children":[2,4,6,-1,8,10,-1,12,14,16,-1,-1,-1,-1,-1,-1,-1],"split_conditions":[6.470699E-1,1.5947752E-1,1.7917329E0,-1.1338209E-1,-1.3069516E-1,-1.0679048E0,-4.515695E-2,-5.7039835E-2,1.0135105E0,1.0998342E0,1.1420138E-1,-1.311599E-2,1.0026705E-1,-1.1328856E-1,6.5637216E-2,-1.0777467E-1,9.526395E-2],"split_indices":[7,7,8,0,12,1,0,11,1,7,0,0,0,0,0,0,0],"split_type":[0,0,0,0,0,0,0,0,0,0,0,0,0,0,0,0,0],"sum_hessian":[6.2374084E1,3.3598656E1,2.8775429E1,2.172923E1,1.1869423E1,2.7675123E1,1.1003045E0,5.250059E0,6.619364E0,3.7848191E0,2.3890305E1,1.9746027E0,3.2754564E0,5.1110086E0,1.5083553E0,1.1927247E0,2.5920944E0],"tree_param":{"num_deleted":"0","num_feature":"13","num_nodes":"17","size_leaf_vector":"1"}},{"base_weights":[2.9453604E-2,-1.10957526E-1,6.445159E-1,1.9790392E-1,1.059783E0,6.994533E-1,-8.63001E-1,4.066854E-2,1.1103647E-1,-1.6351818E-1,9.646582E-1,-1.2207774E-1,1.3228725E-2,-7.98921E-2,4.7203355E-2,-1.4968953E-2,1.0941962E-1],"categories":[],"categories_nodes":[],"categories_segments":[],"categories_sizes":[],"default_left":[0,0,0,0,0,0,0,0,0,0,0,0,0,0,0,0,0],"id":13,"left_children":[1,-1,3,5,7,9,11,-1,-1,13,15,-1,-1,-1,-1,-1,-1],"loss_changes":[4.1472492E1,0E0,6.913945E0,1.1105222E1,1.9835281E-1,3.3511386E0,2.5768657E0,0E0,0E0,2.047002E0,1.7253914E0,0E0,0E0,0E0,0E0,0E0,0E0],"parents":[2147483647,0,0,2,2,3,3,4,4,5,5,6,6,9,9,10,10],"right_children":[2,-1,4,6,8,10,12,-1,-1,14,16,-1,-1,-1,-1,-1,-1],"split_conditions":[8.982147E-2,-1.10957526E-1,8.38624E-1,6.727587E-1,-1.2760464E0,-3.740997E-1,5.9722745E-1,4.066854E-2,1.1103647E-1,4.555157E-1,-1.0053711E0,-1.2207774E-1,1.3228725E-2,-7.98921E-2,4.7203355E-2,-1.4968953E-2,1.0941962E-1],"split_indices":[7,0,7,12,1,1,1,0,0,7,2,0,0,0,0,0,0],"split_type":[0,0,0,0,0,0,0,0,0,0,0,0,0,0,0,0,0],"sum_hessian":[5.717712E1,1.9766918E1,3.7410202E1,1.8736269E1,1.8673933E1,1.2953243E1,5.7830253E0,1.9921378E0,1.6681795E1,3.1351042E0,9.818139E0,4.0872307E0,1.6957943E0,1.4391952E0,1.6959089E0,1.0062588E0,8.811881E0],"tree_param":{"num_deleted":"0","num_feature":"13","num_nodes":"17","size_leaf_vector":"1"}},{"base_weights":[4.4098385E-2,-8.9753944E-1,3.519358E-1,-9.910267E-1,1.3419299E-2,-2.6777846E-1,6.565145E-1,-1.0533639E-1,-4.1156825E-2,-5.04544E-1,8.067555E-2,1.8003292E-1,9.3154407E-1,-6.6250896E-1,3.9961774E-2,-7.5512755E-1,8.847033E-1,-9.821984E-3,1.0494086E0,-1.0962916E-2,-1.0207095E-1,-1.7814828E-2,-9.363028E-2,4.6503856E-3,1.0696726E-1,2.7712096E-2,1.0857912E-1],"categories":[],"categories_nodes":[],"categories_segments":[],"categories_sizes":[],"default_left":[0,0,0,0,0,0,0,0,0,0,0,0,0,0,0,0,0,0,0,0,0,0,0,0,0,0,0],"id":14,"left_children":[1,3,5,7,-1,9,11,-1,-1,13,-1,15,17,19,-1,21,23,-1,25,-1,-1,-1,-1,-1,-1,-1,-1],"loss_changes":[1.59732485E1,1.4437475E0,7.994918E0,2.0870209E-2,0E0,4.060674E0,3.510028E0,0E0,0E0,2.033402E0,0E0,8.253078E0,2.2336636E0,2.050284E0,0E0,4.0664363E-1,1.0393486E0,0E0,1.4408684E-1,0E0,0E0,0E0,0E0,0E0,0E0,0E0,0E0],"parents":[2147483647,0,0,1,1,2,2,3,3,5,5,6,6,9,9,11,11,12,12,13,13,15,15,16,16,18,18],"right_children":[2,4,6,8,-1,10,12,-1,-1,14,-1,16,18,20,-1,22,24,-1,26,-1,-1,-1,-1,-1,-1,-1,-1],"split_conditions":[-4.6128675E-1,1.4821303E0,5.0521162E-3,1.520687E0,1.3419299E-2,1.3604131E0,5.6684124E-1,-1.0533639E-1,-4.1156825E-2,1.5988687E0,8.067555E-2,6.66608E-1,-7.398006E-1,-4.474685E-1,3.9961774E-2,-4.615717E-1,3.6350954E-2,-9.821984E-3,-1.2760464E0,-1.0962916E-2,-1.0207095E-1,-1.7814828E-2,-9.363028E-2,4.6503856E-3,1.0696726E-1,2.7712096E-2,1.0857912E-1],"split_indices":[0,11,2,2,0,1,0,0,0,10,0,1,4,3,0,5,6,0,1,0,0,0,0,0,0,0,0],"split_type":[0,0,0,0,0,0,0,0,0,0,0,0,0,0,0,0,0,0,0,0,0,0,0,0,0,0,0],"sum_hessian":[5.30149E1,1.2589499E1,4.04254E1,1.1579695E1,1.0098045E0,1.3361041E1,2.706436E1,9.716561E0,1.8631338E0,1.1383274E1,1.9777669E0,1.0510238E1,1.6554121E1,9.917813E0,1.4654611E0,4.485704E0,6.0245337E0,1.7172697E0,1.4836851E1,4.4127784E0,5.505035E0,1.5458881E0,2.939816E0,1.3153524E0,4.7091813E0,1.0551995E0,1.37816515E1],"tree_param":{"num_deleted":"0","num_feature":"13","num_nodes":"27","size_leaf_vector":"1"}},{"base_weights":[6.590431E-2,-1.07072905E-1,6.1457604E-1,1.793393E-1,9.9317455E-1,6.52719E-1,-7.5823456E-1,-2.6216263E-2,1.08351104E-1,-6.42868E-2,8.920981E-1,-1.1538976E-1,1.5899716E-2,6.9987275E-2,-5.5638123E-2,1.0439234E-1,1.4223008E-2],"categories":[],"categories_nodes":[],"categories_segments":[],"categories_sizes":[],"default_left":[0,0,0,0,0,0,0,0,0,0,0,0,0,0,0,0,0],"id":15,"left_children":[1,-1,3,5,7,9,11,-1,-1,13,15,-1,-1,-1,-1,-1,-1],"loss_changes":[3.3932804E1,0E0,5.8562136E0,8.597594E0,2.4800053E0,2.231752E0,2.5742292E0,0E0,0E0,1.9325438E0,9.404845E-1,0E0,0E0,0E0,0E0,0E0,0E0],"parents":[2147483647,0,0,2,2,3,3,4,4,5,5,6,6,9,9,10,10],"right_children":[2,-1,4,6,8,10,12,-1,-1,14,16,-1,-1,-1,-1,-1,-1],"split_conditions":[8.982147E-2,-1.07072905E-1,8.38624E-1,6.727587E-1,-1.3454269E0,-3.740997E-1,5.9722745E-1,-2.6216263E-2,1.08351104E-1,-6.749563E-1,9.392694E-1,-1.1538976E-1,1.5899716E-2,6.9987275E-2,-5.5638123E-2,1.0439234E-1,1.4223008E-2],"split_indices":[7,0,7,12,1,1,1,0,0,3,10,0,0,0,0,0,0],"split_type":[0,0,0,0,0,0,0,0,0,0,0,0,0,0,0,0,0],"sum_hessian":[5.2355835E1,1.6735315E1,3.562052E1,1.7256334E1,1.8364187E1,1.1668664E1,5.587671E0,1.1051183E0,1.725907E1,3.1036944E0,8.564969E0,3.723469E0,1.8642017E0,1.0503708E0,2.0533237E0,6.796703E0,1.7682664E0],"tree_param":{"num_deleted":"0","num_feature":"13","num_nodes":"17","size_leaf_vector":"1"}},{"base_weights":[6.92895E-2,-5.439707E-1,5.123503E-1,-9.060739E-1,3.4488145E-1,-1.2784366E-1,8.0438286E-1,-1.2349084E-2,-9.897496E-1,-5.0809354E-2,8.06156E-1,-7.349694E-1,2.801734E-1,9.1483253E-1,1.8034409E-1,-1.6707877E-2,-1.0425049E-1,9.303494E-2,2.603649E-2,-9.25275E-2,-6.8168687E-3,-1.2353033E-1,7.7846475E-2,1.025761E-2,1.00973606E-1,8.905165E-2,-8.8693425E-2,5.66484E-2,-6.246974E-2],"categories":[],"categories_nodes":[],"categories_segments":[],"categories_sizes":[],"default_left":[0,0,0,0,0,0,0,0,0,0,0,0,0,0,0,0,0,0,0,0,0,0,0,0,0,0,0,0,0],"id":16,"left_children":[1,3,5,7,9,11,13,-1,15,-1,17,19,21,23,25,-1,-1,-1,-1,-1,-1,27,-1,-1,-1,-1,-1,-1,-1],"loss_changes":[1.3421785E1,6.998677E0,5.4493723E0,8.62401E-1,3.0605216E0,2.6388652E0,1.1980839E0,0E0,4.0917778E-1,0E0,8.037853E-2,4.7287464E-1,1.4234139E0,1.17272E0,3.9879317E0,0E0,0E0,0E0,0E0,0E0,0E0,1.9127855E0,0E0,0E0,0E0,0E0,0E0,0E0,0E0],"parents":[2147483647,0,0,1,1,2,2,3,3,4,4,5,5,6,6,8,8,10,10,11,11,12,12,13,13,14,14,21,21],"right_children":[2,4,6,8,10,12,14,-1,16,-1,18,20,22,24,26,-1,-1,-1,-1,-1,-1,28,-1,-1,-1,-1,-1,-1,-1],"split_conditions":[2.7967012E-1,1.1522715E0,5.0521162E-3,-1.2687966E0,-4.6128675E-1,-7.210023E-1,5.879789E-1,-1.2349084E-2,-1.4711636E0,-5.0809354E-2,-3.0946258E-2,1.5988687E0,1.2690691E0,-1.2760464E0,-6.2700003E-1,-1.6707877E-2,-1.0425049E-1,9.303494E-2,2.603649E-2,-9.25275E-2,-6.8168687E-3,-3.0946258E-2,7.7846475E-2,1.025761E-2,1.00973606E-1,8.905165E-2,-8.8693425E-2,5.66484E-2,-6.246974E-2],"split_indices":[10,1,2,9,0,1,9,0,3,0,9,10,10,1,8,0,0,0,0,0,0,9,0,0,0,0,0,0,0],"split_type":[0,0,0,0,0,0,0,0,0,0,0,0,0,0,0,0,0,0,0,0,0,0,0,0,0,0,0,0,0],"sum_hessian":[4.737145E1,1.977384E1,2.7597609E1,1.4036311E1,5.7375293E0,8.821449E0,1.877616E1,1.594979E0,1.2441332E1,1.9781306E0,3.7593985E0,3.223536E0,5.5979133E0,1.5556757E1,3.2194018E0,1.0008622E0,1.144047E1,2.4885473E0,1.2708513E0,2.2062397E0,1.0172964E0,3.5079489E0,2.0899644E0,1.8451769E0,1.3711579E1,2.0325513E0,1.1868507E0,1.4210695E0,2.0868795E0],"tree_param":{"num_deleted":"0","num_feature":"13","num_nodes":"29","size_leaf_vector":"1"}},{"base_weights":[5.1638234E-2,-5.8262885E-1,5.1775867E-1,-8.246709E-1,4.2799458E-1,6.295198E-1,-6.376492E-2,-9.821009E-1,3.186643E-2,-3.415638E-2,7.730278E-2,-3.5239577E-1,7.385477E-1,-2.0596841E-2,-1.0318384E-1,-2.691907E-2,3.6858022E-2,1.5328558E-2,-6.7351885E-2,-5.8170363E-2,8.556384E-1,4.6912383E-2,-7.687393E-2,9.98004E-2,3.8555738E-2],"categories":[],"categories_nodes":[],"categories_segments":[],"categories_sizes":[],"default_left":[0,0,0,0,0,0,0,0,0,0,0,0,0,0,0,0,0,0,0,0,0,0,0,0,0],"id":17,"left_children":[1,3,5,7,9,11,-1,13,15,-1,-1,17,19,-1,-1,-1,-1,-1,-1,21,23,-1,-1,-1,-1],"loss_changes":[1.3557701E1,5.11402E0,3.8070927E0,2.1948128E0,1.4374189E0,2.8886147E0,0E0,3.118887E-1,4.4992492E-1,0E0,0E0,6.1160636E-1,2.1413488E0,0E0,0E0,0E0,0E0,0E0,0E0,1.7878594E0,9.2767143E-1,0E0,0E0,0E0,0E0],"parents":[2147483647,0,0,1,1,2,2,3,3,4,4,5,5,7,7,8,8,11,11,12,12,19,19,20,20],"right_children":[2,4,6,8,10,12,-1,14,16,-1,-1,18,20,-1,-1,-1,-1,-1,-1,22,24,-1,-1,-1,-1],"split_conditions":[2.7967012E-1,1.3604131E0,1.875426E0,1.520687E0,-4.6128675E-1,-1.0053711E0,-6.376492E-2,-1.4711636E0,-4.6128675E-1,-3.415638E-2,7.730278E-2,-6.5210795E-1,-1.2760464E0,-2.0596841E-2,-1.0318384E-1,-2.691907E-2,3.6858022E-2,1.5328558E-2,-6.7351885E-2,-6.498714E-1,2.7851632E-1,4.6912383E-2,-7.687393E-2,9.98004E-2,3.8555738E-2],"split_indices":[10,1,8,2,0,2,0,3,0,0,0,8,1,0,0,0,0,0,0,9,9,0,0,0,0],"split_type":[0,0,0,0,0,0,0,0,0,0,0,0,0,0,0,0,0,0,0,0,0,0,0,0,0],"sum_hessian":[4.3837723E1,1.8463633E1,2.537409E1,1.5044504E1,3.4191277E0,2.3551168E1,1.8229219E0,1.2584839E1,2.459665E0,1.0615387E0,2.357589E0,2.1306012E0,2.1420567E1,1.0675344E0,1.1517304E1,1.4044639E0,1.0552012E0,1.0305009E0,1.1001004E0,2.8091965E0,1.861137E1,1.8076093E0,1.0015874E0,1.3423094E1,5.188277E0],"tree_param":{"num_deleted":"0","num_feature":"13","num_nodes":"25","size_leaf_vector":"1"}},{"base_weights":[-5.6842733E-3,-1.0429195E-1,5.515426E-1,2.701466E-1,1.0350759E-1,-8.672161E-1,5.2341217E-1,-1.6295277E-2,-1.0610453E-1,7.351618E-1,-3.903079E-2,8.775547E-3,9.01724E-2,-7.8736536E-2,4.7215115E-2],"categories":[],"categories_nodes":[],"categories_segments":[],"categories_sizes":[],"default_left":[0,0,0,0,0,0,0,0,0,0,0,0,0,0,0],"id":18,"left_children":[1,-1,3,5,-1,7,9,-1,-1,11,13,-1,-1,-1,-1],"loss_changes":[2.7393875E1,0E0,3.9164753E0,6.459106E0,0E0,3.9676738E-1,2.1336427E0,0E0,0E0,1.3109016E0,2.5842116E0,0E0,0E0,0E0,0E0],"parents":[2147483647,0,0,2,2,3,3,5,5,6,6,9,9,10,10],"right_children":[2,-1,4,6,-1,8,10,-1,-1,12,14,-1,-1,-1,-1],"split_conditions":[1.4206351E-1,-1.0429195E-1,1.0998342E0,-9.985243E-1,1.0350759E-1,7.743696E-1,6.727587E-1,-1.6295277E-2,-1.0610453E-1,-5.001595E-1,5.2517176E-1,8.775547E-3,9.01724E-2,-7.8736536E-2,4.7215115E-2],"split_indices":[7,0,7,1,0,10,12,0,0,2,7,0,0,0,0],"split_type":[0,0,0,0,0,0,0,0,0,0,0,0,0,0,0],"sum_hessian":[4.5401047E1,1.5561981E1,2.9839064E1,1.9847404E1,9.991659E0,3.1731796E0,1.6674225E1,1.0821121E0,2.0910676E0,1.1890558E1,4.783667E0,2.7456043E0,9.144954E0,1.7222011E0,3.0614657E0],"tree_param":{"num_deleted":"0","num_feature":"13","num_nodes":"15","size_leaf_vector":"1"}},{"base_weights":[4.3399576E-2,-1.0198338E-1,5.732007E-1,8.388617E-1,2.2236134E-3,1.838418E-1,9.7952527E-1,-5.754771E-1,8.843158E-2,-7.24982E-2,7.598664E-2,1.06559195E-1,4.9945164E-1,-1.0637911E-1,2.599121E-1,-2.000848E-2,7.898659E-2,-1.8582275E-2,5.8971167E-2],"categories":[],"categories_nodes":[],"categories_segments":[],"categories_sizes":[],"default_left":[0,0,0,0,0,0,0,0,0,0,0,0,0,0,0,0,0,0,0],"id":19,"left_children":[1,-1,3,5,7,9,11,13,-1,-1,-1,-1,15,-1,17,-1,-1,-1,-1],"loss_changes":[2.4293242E1,0E0,4.3562803E0,1.6263227E0,5.6688743E0,3.009777E0,1.2510204E-1,3.01959E0,0E0,0E0,0E0,0E0,1.0317448E0,0E0,5.923809E-1,0E0,0E0,0E0,0E0],"parents":[2147483647,0,0,2,2,3,3,4,4,5,5,6,6,7,7,12,12,14,14],"right_children":[2,-1,4,6,8,10,12,14,-1,-1,-1,-1,16,-1,18,-1,-1,-1,-1],"split_conditions":[8.982147E-2,-1.0198338E-1,1.3274659E0,-5.128607E-1,1.0301781E0,4.555157E-1,9.694599E-2,5.2784693E-1,8.843158E-2,-7.24982E-2,7.598664E-2,1.06559195E-1,4.032737E-1,-1.0637911E-1,5.774138E-1,-2.000848E-2,7.898659E-2,-1.8582275E-2,5.8971167E-2],"split_indices":[7,0,5,1,7,7,8,1,0,0,0,0,7,0,7,0,0,0,0],"split_type":[0,0,0,0,0,0,0,0,0,0,0,0,0,0,0,0,0,0,0],"sum_hessian":[4.108872E1,1.3357411E1,2.7731308E1,1.8605486E1,9.125823E0,3.6969721E0,1.4908513E1,5.7243953E0,3.4014273E0,1.3338664E0,2.3631058E0,1.1607841E1,3.3006728E0,3.4401188E0,2.2842765E0,1.0595396E0,2.2411332E0,1.1570476E0,1.127229E0],"tree_param":{"num_deleted":"0","num_feature":"13","num_nodes":"19","size_leaf_vector":"1"}},{"base_weights":[6.22104E-3,-5.5460644E-1,3.7702253E-1,-8.003739E-1,2.1702011E-1,-1.07818656E-1,6.4322823E-1,-9.346804E-1,-1.5453795E-1,-4.1353744E-2,6.559268E-2,-4.6825853E-1,2.5498855E-1,8.9602816E-1,5.9352018E-2,-3.2461528E-2,-9.8454446E-2,-5.6644637E-2,2.6607884E-2,2.3304932E-2,-6.8723655E-1,-1.5163447E-1,5.7226982E-2,9.802565E-2,3.625545E-1,6.6757366E-2,-4.149375E-1,-8.778812E-2,-1.5489382E-2,-3.3629756E-2,1.2803885E-2,5.7232347E-3,4.8881523E-2,-1.05964355E-1,3.178769E-2],"categories":[],"categories_nodes":[],"categories_segments":[],"categories_sizes":[],"default_left":[0,0,0,0,0,0,0,0,0,0,0,0,0,0,0,0,0,0,0,0,0,0,0,0,0,0,0,0,0,0,0,0,0,0,0],"id":20,"left_children":[1,3,5,7,9,11,13,15,17,-1,-1,19,21,23,25,-1,-1,-1,-1,-1,27,29,-1,-1,31,-1,33,-1,-1,-1,-1,-1,-1,-1,-1],"loss_changes":[8.841646E0,3.3837166E0,3.3714957E0,9.8761845E-1,1.6206114E0,1.4172708E0,2.4058719E0,3.047943E-3,7.475742E-1,0E0,0E0,9.788798E-1,8.0842835E-1,1.6381836E-1,2.0380337E0,0E0,0E0,0E0,0E0,0E0,3.0203557E-1,2.1050176E-1,0E0,0E0,9.394184E-2,0E0,2.2486844E0,0E0,0E0,0E0,0E0,0E0,0E0,0E0,0E0],"parents":[2147483647,0,0,1,1,2,2,3,3,4,4,5,5,6,6,7,7,8,8,11,11,12,12,13,13,14,14,20,20,21,21,24,24,26,26],"right_children":[2,4,6,8,10,12,14,16,18,-1,-1,20,22,24,26,-1,-1,-1,-1,-1,28,30,-1,-1,32,-1,34,-1,-1,-1,-1,-1,-1,-1,-1],"split_conditions":[2.7967012E-1,1.1652423E0,5.0521162E-3,1.520687E0,1.2480494E0,1.2522599E0,1.3274659E0,-1.4142916E0,-4.6128675E-1,-4.1353744E-2,6.559268E-2,-5.612124E-1,-6.480005E-2,5.879789E-1,-7.318282E-1,-3.2461528E-2,-9.8454446E-2,-5.6644637E-2,2.6607884E-2,2.3304932E-2,4.861967E-1,4.0494075E-1,5.7226982E-2,9.802565E-2,-1.6310875E-1,6.6757366E-2,2.1457842E-1,-8.778812E-2,-1.5489382E-2,-3.3629756E-2,1.2803885E-2,5.7232347E-3,4.8881523E-2,-1.05964355E-1,3.178769E-2],"split_indices":[10,11,2,2,6,0,5,3,0,0,0,3,4,9,3,0,0,0,0,0,11,12,0,0,3,0,11,0,0,0,0,0,0,0,0],"split_type":[0,0,0,0,0,0,0,0,0,0,0,0,0,0,0,0,0,0,0,0,0,0,0,0,0,0,0,0,0,0,0,0,0,0,0],"sum_hessian":[4.0511482E1,1.5926848E1,2.4584633E1,1.2051212E1,3.8756366E0,8.924817E0,1.5659816E1,9.606274E0,2.4449382E0,1.6142774E0,2.261359E0,4.3312125E0,4.593605E0,1.055515E1,5.1046667E0,1.2933011E0,8.312973E0,1.060091E0,1.3848472E0,1.0153031E0,3.3159094E0,2.242163E0,2.351442E0,8.392577E0,2.1625726E0,2.057998E0,3.0466685E0,1.9636055E0,1.3523039E0,1.2285252E0,1.0136379E0,1.0578295E0,1.1047431E0,1.3835102E0,1.6631584E0],"tree_param":{"num_deleted":"0","num_feature":"13","num_nodes":"35","size_leaf_vector":"1"}},{"base_weights":[-7.087487E-3,-9.9471666E-2,4.3006107E-1,1.21677674E-1,9.9249415E-2,5.479864E-1,-6.718157E-1,-8.710931E-2,8.30214E-1,4.295544E-2,-9.3994E-1,6.027318E-2,-4.4752877E-2,9.257722E-2,1.4195347E-2,-1.06615424E-1,-1.9779285E-2],"categories":[],"categories_nodes":[],"categories_segments":[],"categories_sizes":[],"default_left":[0,0,0,0,0,0,0,0,0,0,0,0,0,0,0,0,0],"id":21,"left_children":[1,-1,3,5,-1,7,9,11,13,-1,15,-1,-1,-1,-1,-1,-1],"loss_changes":[1.7037699E1,0E0,4.6257668E0,6.732652E0,0E0,2.3648026E0,2.4782043E0,1.4731286E0,4.5720577E-1,0E0,3.4768438E-1,0E0,0E0,0E0,0E0,0E0,0E0],"parents":[2147483647,0,0,2,2,3,3,5,5,6,6,7,7,8,8,10,10],"right_children":[2,-1,4,6,-1,8,10,12,14,-1,16,-1,-1,-1,-1,-1,-1],"split_conditions":[8.982147E-2,-9.9471666E-2,1.0998342E0,1.3274659E0,9.9249415E-2,5.0521162E-3,-8.3623296E-1,-4.615717E-1,9.694599E-2,4.295544E-2,3.5038754E-1,6.027318E-2,-4.4752877E-2,9.257722E-2,1.4195347E-2,-1.06615424E-1,-1.9779285E-2],"split_indices":[7,0,7,5,0,2,8,5,8,0,11,0,0,0,0,0,0],"split_type":[0,0,0,0,0,0,0,0,0,0,0,0,0,0,0,0,0],"sum_hessian":[3.7471962E1,1.1105764E1,2.6366196E1,1.7814697E1,8.551499E0,1.1789906E1,6.0247917E0,3.8400369E0,7.949868E0,1.0616784E0,4.9631133E0,1.0870745E0,2.7529624E0,6.677653E0,1.2722157E0,3.8686116E0,1.0945015E0],"tree_param":{"num_deleted":"0","num_feature":"13","num_nodes":"17","size_leaf_vector":"1"}},{"base_weights":[2.1185381E-2,-8.8562375E-1,5.877629E-1,-9.869533E-2,-1.37333E-2,-1.084507E-1,7.8441316E-1,-7.61695E-1,7.714718E-2,1.1254608E-1,9.656834E-2,-1.825954E-2,-9.258497E-2,-2.4477857E-1,5.3166565E-2,2.3792794E-2,-6.2678404E-2],"categories":[],"categories_nodes":[],"categories_segments":[],"categories_sizes":[],"default_left":[0,0,0,0,0,0,0,0,0,0,0,0,0,0,0,0,0],"id":22,"left_children":[1,3,5,-1,-1,7,9,11,-1,13,-1,-1,-1,15,-1,-1,-1],"loss_changes":[1.851906E1,9.161396E-1,3.119237E0,0E0,0E0,3.898252E0,2.0107098E0,1.930108E-1,0E0,8.534041E-1,0E0,0E0,0E0,7.560961E-1,0E0,0E0,0E0],"parents":[2147483647,0,0,1,1,2,2,5,5,6,6,7,7,9,9,13,13],"right_children":[2,4,6,-1,-1,8,10,12,-1,14,-1,-1,-1,16,-1,-1,-1],"split_conditions":[2.4654758E-1,1.5947752E-1,-7.903828E-1,-9.869533E-2,-1.37333E-2,1.0301781E0,4.7292975E-1,6.122418E-1,7.714718E-2,1.0135105E0,9.656834E-2,-1.825954E-2,-9.258497E-2,-1.3069516E-1,5.3166565E-2,2.3792794E-2,-6.2678404E-2],"split_indices":[7,7,1,0,0,7,7,7,0,1,0,0,0,12,0,0,0],"split_type":[0,0,0,0,0,0,0,0,0,0,0,0,0,0,0,0,0],"sum_hessian":[3.403173E1,1.2870055E1,2.1161674E1,1.1054211E1,1.8158448E0,4.7595696E0,1.6402105E1,2.8087482E0,1.9508212E0,3.8294296E0,1.2572677E1,1.0868678E0,1.7218804E0,2.2916389E0,1.5377907E0,1.1790007E0,1.1126382E0],"tree_param":{"num_deleted":"0","num_feature":"13","num_nodes":"17","size_leaf_vector":"1"}},{"base_weights":[-1.7221514E-2,-9.737814E-2,4.19433E-1,-5.400992E-2,7.349263E-1,4.404822E-1,-7.671932E-1,8.3264893E-1,-2.8302012E-2,-6.350998E-2,7.638037E-2,-9.147139E-2,-1.5251626E-2,9.732867E-2,4.0866315E-1,4.5685574E-2,-5.6118872E-2,-2.4645332E-2,7.836181E-2],"categories":[],"categories_nodes":[],"categories_segments":[],"categories_sizes":[],"default_left":[0,0,0,0,0,0,0,0,0,0,0,0,0,0,0,0,0,0,0],"id":23,"left_children":[1,-1,3,5,7,9,11,13,-1,15,-1,-1,-1,-1,17,-1,-1,-1,-1],"loss_changes":[1.4884674E1,0E0,3.698422E0,4.120924E0,1.7047052E0,1.1842737E0,2.918396E-1,4.2082977E-1,0E0,1.2009037E0,0E0,0E0,0E0,0E0,1.4564898E0,0E0,0E0,0E0,0E0],"parents":[2147483647,0,0,2,2,3,3,4,4,5,5,6,6,7,7,9,9,14,14],"right_children":[2,-1,4,6,8,10,12,14,-1,16,-1,-1,-1,-1,18,-1,-1,-1,-1],"split_conditions":[8.982147E-2,-9.737814E-2,6.470699E-1,4.329471E-1,1.7498863E0,-5.7039835E-2,-2.5875002E-1,1.2083946E0,-2.8302012E-2,-7.318282E-1,7.638037E-2,-9.147139E-2,-1.5251626E-2,9.732867E-2,1.0998342E0,4.5685574E-2,-5.6118872E-2,-2.4645332E-2,7.836181E-2],"split_indices":[7,0,7,5,8,11,8,12,0,3,0,0,0,0,7,0,0,0,0],"split_type":[0,0,0,0,0,0,0,0,0,0,0,0,0,0,0,0,0,0,0],"sum_hessian":[3.3658165E1,1.0163448E1,2.3494717E1,9.726906E0,1.376781E1,5.969955E0,3.756951E0,1.272796E1,1.039851E0,2.6471534E0,3.3228016E0,2.6361594E0,1.1207918E0,8.584787E0,4.1431723E0,1.3341804E0,1.312973E0,1.632901E0,2.5102713E0],"tree_param":{"num_deleted":"0","num_feature":"13","num_nodes":"19","size_leaf_vector":"1"}},{"base_weights":[-2.7980147E-2,-6.594878E-1,6.992068E-1,-8.3606917E-1,-6.4935703E-3,8.2083267E-1,-4.650941E-2,-1.4894155E-1,-9.689638E-2,-6.395849E-2,4.62433E-1,9.898772E-3,9.2801225E-1,-6.1109334E-2,4.309256E-2,1.1596116E-2,6.2651746E-2,3.412425E-2,9.7644806E-2],"categories":[],"categories_nodes":[],"categories_segments":[],"categories_sizes":[],"default_left":[0,0,0,0,0,0,0,0,0,0,0,0,0,0,0,0,0,0,0],"id":24,"left_children":[1,3,5,7,9,11,-1,13,-1,-1,15,-1,17,-1,-1,-1,-1,-1,-1],"loss_changes":[1.5450074E1,2.068215E0,2.5987954E0,1.1476059E0,1.7313854E0,1.0328159E0,0E0,1.194449E0,0E0,0E0,1.1827922E-1,0E0,2.3136139E-2,0E0,0E0,0E0,0E0,0E0,0E0],"parents":[2147483647,0,0,1,1,2,2,3,3,4,4,5,5,7,7,10,10,12,12],"right_children":[2,4,6,8,10,12,-1,14,-1,-1,16,-1,18,-1,-1,-1,-1,-1,-1],"split_conditions":[4.9034375E-1,1.0135105E0,1.875426E0,-1.1868038E0,2.751414E-3,-1.0679048E0,-4.650941E-2,8.982147E-2,-9.689638E-2,-6.395849E-2,-2.7269888E-1,9.898772E-3,6.470699E-1,-6.1109334E-2,4.309256E-2,1.1596116E-2,6.2651746E-2,3.412425E-2,9.7644806E-2],"split_indices":[7,1,8,3,7,1,0,7,0,0,8,0,7,0,0,0,0,0,0],"split_type":[0,0,0,0,0,0,0,0,0,0,0,0,0,0,0,0,0,0,0],"sum_hessian":[3.1639738E1,1.6983732E1,1.4656007E1,1.3147932E1,3.8358002E0,1.3536906E1,1.1190999E0,2.474476E0,1.0673456E1,1.4773357E0,2.3584645E0,1.9987918E0,1.1538115E1,1.3470399E0,1.1274362E0,1.3064824E0,1.051982E0,1.4932749E0,1.004484E1],"tree_param":{"num_deleted":"0","num_feature":"13","num_nodes":"19","size_leaf_vector":"1"}},{"base_weights":[4.786041E-2,-6.691477E-1,3.2845145E-1,-8.5865956E-4,-8.344124E-1,7.097923E-1,1.4072527E-2,-2.1567909E-2,-8.996877E-2,8.349526E-2,3.1618138E-3,-2.5292143E-1,4.4930243E-1,2.5728092E-1,-8.426665E-2,6.8167284E-2,2.685465E-3,-4.1727692E-2,5.9372604E-2],"categories":[],"categories_nodes":[],"categories_segments":[],"categories_sizes":[],"default_left":[0,0,0,0,0,0,0,0,0,0,0,0,0,0,0,0,0,0,0],"id":25,"left_children":[1,3,5,-1,7,9,11,-1,-1,-1,-1,13,15,17,-1,-1,-1,-1,-1],"loss_changes":[6.47784E0,9.838853E-1,2.7506826E0,0E0,9.8814964E-2,8.5511494E-1,1.6989118E0,0E0,0E0,0E0,0E0,2.953418E0,5.2622116E-1,1.5283229E0,0E0,0E0,0E0,0E0,0E0],"parents":[2147483647,0,0,1,1,2,2,4,4,5,5,6,6,11,11,12,12,13,13],"right_children":[2,4,6,-1,8,10,12,-1,-1,-1,-1,14,16,18,-1,-1,-1,-1,-1],"split_conditions":[-1.1857743E-1,-1.2687966E0,-3.0946258E-2,-8.5865956E-4,-1.3574197E0,1.1449461E0,4.861967E-1,-2.1567909E-2,-8.996877E-2,8.349526E-2,3.1618138E-3,-4.474685E-1,5.879789E-1,-6.480005E-2,-8.426665E-2,6.8167284E-2,2.685465E-3,-4.1727692E-2,5.9372604E-2],"split_indices":[0,9,9,0,3,3,11,0,0,0,0,3,9,4,0,0,0,0,0],"split_type":[0,0,0,0,0,0,0,0,0,0,0,0,0,0,0,0,0,0,0],"sum_hessian":[3.010582E1,8.078261E0,2.2027557E1,1.8271446E0,6.251117E0,9.385368E0,1.2642189E1,1.0072944E0,5.2438226E0,7.727959E0,1.6574095E0,8.095093E0,4.5470963E0,4.642499E0,3.4525936E0,2.5376291E0,2.009467E0,1.4649951E0,3.1775038E0],"tree_param":{"num_deleted":"0","num_feature":"13","num_nodes":"19","size_leaf_vector":"1"}},{"base_weights":[3.4202404E-2,-5.631321E-1,6.941091E-1,-9.3029365E-2,-9.755951E-2,-3.1303067E-2,8.3438313E-1,4.6386594E-1,-5.7093525E-1,2.5085602E-2,9.003631E-2,7.385149E-2,-8.193985E-3,-8.2963966E-2,1.1555245E-2],"categories":[],"categories_nodes":[],"categories_segments":[],"categories_sizes":[],"default_left":[0,0,0,0,0,0,0,0,0,0,0,0,0,0,0],"id":26,"left_children":[1,3,5,-1,7,-1,9,11,13,-1,-1,-1,-1,-1,-1],"loss_changes":[1.1651234E1,2.5666862E0,2.241891E0,0E0,2.383404E0,0E0,2.5844193E-1,6.898713E-1,9.435742E-1,0E0,0E0,0E0,0E0,0E0,0E0],"parents":[2147483647,0,0,1,1,2,2,4,4,6,6,7,7,8,8],"right_children":[2,4,6,-1,8,-1,10,12,14,-1,-1,-1,-1,-1,-1],"split_conditions":[4.9034375E-1,8.982147E-2,-1.2760464E0,-9.3029365E-2,-1.3069516E-1,-3.1303067E-2,-8.5976326E-1,9.0955055E-1,1.082891E0,2.5085602E-2,9.003631E-2,7.385149E-2,-8.193985E-3,-8.2963966E-2,1.1555245E-2],"split_indices":[7,7,1,0,12,0,1,0,1,0,0,0,0,0,0],"split_type":[0,0,0,0,0,0,0,0,0,0,0,0,0,0,0],"sum_hessian":[2.7566172E1,1.4546037E1,1.3020136E1,7.5744643E0,6.9715724E0,1.4411806E0,1.1578956E1,3.1983757E0,3.7731965E0,1.6640543E0,9.914901E0,1.8928318E0,1.3055439E0,2.5889986E0,1.184198E0],"tree_param":{"num_deleted":"0","num_feature":"13","num_nodes":"15","size_leaf_vector":"1"}},{"base_weights":[-9.775264E-3,-9.236064E-2,3.342362E-1,9.18274E-2,9.038929E-2,-5.418931E-1,4.5263058E-1,1.44052375E-2,-8.0342865E-1,6.3852173E-1,-1.2704796E-1,-1.06062405E-1,8.200625E-3,-1.8182607E-2,7.882535E-2,-6.1361577E-2,3.5701156E-2],"categories":[],"categories_nodes":[],"categories_segments":[],"categories_sizes":[],"default_left":[0,0,0,0,0,0,0,0,0,0,0,0,0,0,0,0,0],"id":27,"left_children":[1,-1,3,5,-1,7,9,-1,11,13,15,-1,-1,-1,-1,-1,-1],"loss_changes":[9.531122E0,0E0,2.961509E0,4.036059E0,0E0,1.2764207E0,1.2782218E0,0E0,1.1882782E0,1.1969433E0,1.0508407E0,0E0,0E0,0E0,0E0,0E0,0E0],"parents":[2147483647,0,0,2,2,3,3,5,5,6,6,8,8,9,9,10,10],"right_children":[2,-1,4,6,-1,8,10,-1,12,14,16,-1,-1,-1,-1,-1,-1],"split_conditions":[8.982147E-2,-9.236064E-2,1.0998342E0,-2.3533869E-1,9.038929E-2,-1.0077038E0,1.3274659E0,1.44052375E-2,3.9565727E-1,-1.0053711E0,4.7292975E-1,-1.06062405E-1,8.200625E-3,-1.8182607E-2,7.882535E-2,-6.1361577E-2,3.5701156E-2],"split_indices":[7,0,7,1,0,11,5,0,11,2,7,0,0,0,0,0,0],"split_type":[0,0,0,0,0,0,0,0,0,0,0,0,0,0,0,0,0],"sum_hessian":[2.8336346E1,7.289015E0,2.104733E1,1.5579084E1,5.4682465E0,5.4698477E0,1.0109237E1,1.6338508E0,3.8359969E0,7.577709E0,2.5315273E0,2.8192291E0,1.0167679E0,1.1365348E0,6.441174E0,1.1290159E0,1.4025115E0],"tree_param":{"num_deleted":"0","num_feature":"13","num_nodes":"17","size_leaf_vector":"1"}},{"base_weights":[3.0993812E-3,-3.0170143E-1,4.9049935E-1,3.269285E-1,-5.5715823E-1,-2.4214227E-1,7.8053325E-1,-2.7490068E-2,7.664915E-2,-2.0798633E-2,-7.946525E-1,3.0019397E-2,-6.399097E-2,8.690592E-2,2.8156212E-2,-7.204871E-2,5.1548716E-2,-1.4491002E-2,-8.618668E-1,-3.1084491E-2,-1.03876255E-1],"categories":[],"categories_nodes":[],"categories_segments":[],"categories_sizes":[],"default_left":[0,0,0,0,0,0,0,0,0,0,0,0,0,0,0,0,0,0,0,0,0],"id":28,"left_children":[1,3,5,7,9,11,13,-1,-1,15,17,-1,-1,-1,-1,-1,-1,-1,19,-1,-1],"loss_changes":[4.0631056E0,2.885373E0,2.4245157E0,1.6641519E0,1.5552564E0,1.0003877E0,9.86824E-2,0E0,0E0,2.1776705E0,2.4742794E-1,0E0,0E0,0E0,0E0,0E0,0E0,0E0,4.104972E-1,0E0,0E0],"parents":[2147483647,0,0,1,1,2,2,3,3,4,4,5,5,6,6,9,9,10,10,18,18],"right_children":[2,4,6,8,10,12,14,-1,-1,16,18,-1,-1,-1,-1,-1,-1,-1,20,-1,-1],"split_conditions":[6.66608E-1,-6.498714E-1,-1.1857743E-1,5.6684124E-1,-6.102614E-1,-6.498714E-1,8.974415E-1,-2.7490068E-2,7.664915E-2,5.6684124E-1,-1.201967E0,3.0019397E-2,-6.399097E-2,8.690592E-2,2.8156212E-2,-7.204871E-2,5.1548716E-2,-1.4491002E-2,-3.0946258E-2,-3.1084491E-2,-1.03876255E-1],"split_indices":[1,9,0,0,8,9,9,0,0,0,12,0,0,0,0,0,0,0,9,0,0],"split_type":[0,0,0,0,0,0,0,0,0,0,0,0,0,0,0,0,0,0,0,0,0],"sum_hessian":[2.5353823E1,1.5833298E1,9.520524E0,4.4941883E0,1.1339109E1,2.7468793E0,6.773645E0,2.0550773E0,2.439111E0,3.813726E0,7.5253835E0,1.2660228E0,1.4808567E0,5.12303E0,1.6506147E0,1.5057317E0,2.3079941E0,1.0013679E0,6.524016E0,2.2554903E0,4.2685256E0],"tree_param":{"num_deleted":"0","num_feature":"13","num_nodes":"21","size_leaf_vector":"1"}},{"base_weights":[-5.4948863E-2,-5.836668E-1,5.645503E-1,-1.2238255E-2,-7.906646E-1,-1.1395048E-1,8.043071E-1,-6.7871116E-2,4.9425323E-2,-9.524915E-2,-1.2165008E-1,-5.8467306E-2,2.7155334E-2,2.9337266E-1,9.075694E-2,2.6499962E-2,-4.4523325E-2,5.9689727E-2,-1.6536191E-2],"categories":[],"categories_nodes":[],"categories_segments":[],"categories_sizes":[],"default_left":[0,0,0,0,0,0,0,0,0,0,0,0,0,0,0,0,0,0,0],"id":29,"left_children":[1,3,5,7,9,11,13,-1,-1,-1,15,-1,-1,17,-1,-1,-1,-1,-1],"loss_changes":[8.954331E0,1.7289472E0,2.1467967E0,1.9977379E0,1.0506043E0,9.1629535E-1,2.3280048E-1,0E0,0E0,0E0,5.2397686E-1,0E0,0E0,5.25876E-1,0E0,0E0,0E0,0E0,0E0],"parents":[2147483647,0,0,1,1,2,2,3,3,4,4,5,5,6,6,10,10,13,13],"right_children":[2,4,6,8,10,12,14,-1,-1,-1,16,-1,-1,18,-1,-1,-1,-1,-1],"split_conditions":[5.2517176E-1,-4.615717E-1,-7.903828E-1,-3.047192E-1,1.1522715E0,5.0521162E-3,7.689679E-1,-6.7871116E-2,4.9425323E-2,-9.524915E-2,-6.498714E-1,-5.8467306E-2,2.7155334E-2,6.2965584E-1,9.075694E-2,2.6499962E-2,-4.4523325E-2,5.9689727E-2,-1.6536191E-2],"split_indices":[7,5,1,1,1,2,7,0,0,0,9,0,0,7,0,0,0,0,0],"split_type":[0,0,0,0,0,0,0,0,0,0,0,0,0,0,0,0,0,0,0],"sum_hessian":[2.5332096E1,1.3698667E1,1.1633429E1,3.9243655E0,9.774302E0,3.174491E0,8.458938E0,1.5477351E0,2.3766303E0,7.5293217E0,2.2449796E0,1.196657E0,1.977834E0,2.067943E0,6.3909945E0,1.1053011E0,1.1396785E0,1.0632529E0,1.0046903E0],"tree_param":{"num_deleted":"0","num_feature":"13","num_nodes":"19","size_leaf_vector":"1"}},{"base_weights":[3.2797396E-2,-5.1593244E-1,6.4454734E-1,-7.820572E-1,1.587052E-1,-9.381209E-4,8.693647E-1,-2.425584E-1,-9.62525E-2,4.8500025E-1,-3.3341166E-2,-3.9264392E-2,5.6501757E-2,9.2862256E-2,2.1520665E-2,-6.3447766E-2,3.0405259E-2,1.5802192E-2,5.8956128E-2],"categories":[],"categories_nodes":[],"categories_segments":[],"categories_sizes":[],"default_left":[0,0,0,0,0,0,0,0,0,0,0,0,0,0,0,0,0,0,0],"id":30,"left_children":[1,3,5,7,9,11,13,15,-1,17,-1,-1,-1,-1,-1,-1,-1,-1,-1],"loss_changes":[8.673284E0,2.575439E0,1.7702727E0,7.3624754E-1,9.153868E-1,1.1415735E0,1.5076113E-1,1.0141463E0,0E0,1.7257452E-2,0E0,0E0,0E0,0E0,0E0,0E0,0E0,0E0,0E0],"parents":[2147483647,0,0,1,1,2,2,3,3,4,4,5,5,6,6,7,7,9,9],"right_children":[2,4,6,8,10,12,14,16,-1,18,-1,-1,-1,-1,-1,-1,-1,-1,-1],"split_conditions":[5.2517176E-1,1.0135105E0,-7.903828E-1,-4.615717E-1,4.329471E-1,1.0301781E0,1.2477273E0,8.982147E-2,-9.62525E-2,1.9430554E-1,-3.3341166E-2,-3.9264392E-2,5.6501757E-2,9.2862256E-2,2.1520665E-2,-6.3447766E-2,3.0405259E-2,1.5802192E-2,5.8956128E-2],"split_indices":[7,1,1,5,5,7,8,7,0,7,0,0,0,0,0,0,0,0,0],"split_type":[0,0,0,0,0,0,0,0,0,0,0,0,0,0,0,0,0,0,0],"sum_hessian":[2.384689E1,1.2653518E1,1.1193373E1,8.959882E0,3.693636E0,3.1487238E0,8.044649E0,2.833459E0,6.1264224E0,2.229705E0,1.463931E0,2.0417967E0,1.1069273E0,6.991724E0,1.0529248E0,1.5566183E0,1.2768407E0,1.1487324E0,1.0809727E0],"tree_param":{"num_deleted":"0","num_feature":"13","num_nodes":"19","size_leaf_vector":"1"}},{"base_weights":[-9.7075375E-3,-8.7898165E-2,3.263914E-1,-3.3720896E-1,5.296373E-1,-6.789576E-2,3.748455E-2,2.0764494E-1,8.717568E-2,5.8028394E-1,-6.793501E-2,7.72582E-2,1.1602769E-3],"categories":[],"categories_nodes":[],"categories_segments":[],"categories_sizes":[],"default_left":[0,0,0,0,0,0,0,0,0,0,0,0,0],"id":31,"left_children":[1,-1,3,5,7,-1,-1,9,-1,11,-1,-1,-1],"loss_changes":[6.8559976E0,0E0,2.4639373E0,1.3699527E0,1.2907643E0,0E0,0E0,3.1030078E0,0E0,6.810975E-1,0E0,0E0,0E0],"parents":[2147483647,0,0,2,2,3,3,4,4,7,7,9,9],"right_children":[2,-1,4,6,8,-1,-1,10,-1,12,-1,-1,-1],"split_conditions":[8.982147E-2,-8.7898165E-2,-7.210023E-1,1.520687E0,7.689679E-1,-6.789576E-2,3.748455E-2,6.727587E-1,8.717568E-2,9.392694E-1,-6.793501E-2,7.72582E-2,1.1602769E-3],"split_indices":[7,0,1,2,7,0,0,12,0,10,0,0,0],"split_type":[0,0,0,0,0,0,0,0,0,0,0,0,0],"sum_hessian":[2.1484457E1,5.5402107E0,1.5944245E1,3.5838413E0,1.2360405E1,2.4530075E0,1.1308337E0,7.1953235E0,5.165081E0,5.310215E0,1.8851086E0,3.7003882E0,1.6098267E0],"tree_param":{"num_deleted":"0","num_feature":"13","num_nodes":"13","size_leaf_vector":"1"}},{"base_weights":[4.810031E-2,-4.715453E-1,5.9174436E-1,-8.6197734E-2,-7.982312E-2,7.159354E-1,-2.9091824E-2,4.958431E-2,-3.8553035E-1,9.25919E-2,1.8685152E-1,-7.255683E-2,1.3183954E-2,-3.693502E-2,6.656334E-2,3.4335356E-2,-3.765371E-2],"categories":[],"categories_nodes":[],"categories_segments":[],"categories_sizes":[],"default_left":[0,0,0,0,0,0,0,0,0,0,0,0,0,0,0,0,0],"id":32,"left_children":[1,3,5,-1,7,9,-1,-1,11,-1,13,-1,15,-1,-1,-1,-1],"loss_changes":[6.694346E0,1.792062E0,1.4734612E0,0E0,1.4539697E0,9.8319435E-1,0E0,0E0,7.2125894E-1,0E0,1.3668779E0,0E0,5.6656474E-1,0E0,0E0,0E0,0E0],"parents":[2147483647,0,0,1,1,2,2,4,4,5,5,8,8,10,10,12,12],"right_children":[2,4,6,-1,8,10,-1,-1,12,-1,14,-1,16,-1,-1,-1,-1],"split_conditions":[5.2517176E-1,8.982147E-2,1.7917329E0,-8.6197734E-2,-4.615717E-1,1.2083946E0,-2.9091824E-2,4.958431E-2,-3.9059654E-1,9.25919E-2,1.0998342E0,-7.255683E-2,1.14770286E-1,-3.693502E-2,6.656334E-2,3.4335356E-2,-3.765371E-2],"split_indices":[7,7,8,0,5,12,0,0,3,0,7,0,10,0,0,0,0],"split_type":[0,0,0,0,0,0,0,0,0,0,0,0,0,0,0,0,0],"sum_hessian":[2.170889E1,1.1167237E1,1.0541654E1,4.9915977E0,6.175639E0,9.406979E0,1.1346751E0,1.9263136E0,4.2493258E0,6.1973314E0,3.2096472E0,1.8509763E0,2.3983493E0,1.5905107E0,1.6191365E0,1.3627828E0,1.0355664E0],"tree_param":{"num_deleted":"0","num_feature":"13","num_nodes":"17","size_leaf_vector":"1"}},{"base_weights":[-7.1182914E-2,-3.42325E-1,4.082743E-1,-7.546468E-2,1.244885E-2,2.3633273E-2,5.7953954E-2,5.769375E-2,-3.218934E-1,2.8519226E-2,-2.6685232E-2,7.380706E-2,-8.664762E-2,6.464754E-2,-5.726741E-2],"categories":[],"categories_nodes":[],"categories_segments":[],"categories_sizes":[],"default_left":[0,0,0,0,0,0,0,0,0,0,0,0,0,0,0],"id":33,"left_children":[1,3,5,-1,7,9,-1,-1,11,-1,-1,13,-1,-1,-1],"loss_changes":[2.9000053E0,2.072908E0,5.216063E-1,0E0,1.8024249E0,3.455249E-1,0E0,0E0,1.3615663E0,0E0,0E0,2.0025368E0,0E0,0E0,0E0],"parents":[2147483647,0,0,1,1,2,2,4,4,5,5,8,8,11,11],"right_children":[2,4,6,-1,8,10,-1,-1,12,-1,-1,14,-1,-1,-1],"split_conditions":[4.861967E-1,5.6684124E-1,5.0521162E-3,-7.546468E-2,-3.4040886E-1,9.174583E-1,5.7953954E-2,5.769375E-2,-1.4715911E-1,2.8519226E-2,-2.6685232E-2,-4.474685E-1,-8.664762E-2,6.464754E-2,-5.726741E-2],"split_indices":[11,0,2,0,9,3,0,0,8,0,0,3,0,0,0],"split_type":[0,0,0,0,0,0,0,0,0,0,0,0,0,0,0],"sum_hessian":[2.023247E1,1.3106507E1,7.1259613E0,5.5403438E0,7.5661635E0,2.5459836E0,4.579978E0,2.5445197E0,5.021644E0,1.3492839E0,1.1966996E0,3.4090545E0,1.6125895E0,1.8077317E0,1.6013229E0],"tree_param":{"num_deleted":"0","num_feature":"13","num_nodes":"15","size_leaf_vector":"1"}},{"base_weights":[-1.197015E-2,-2.6920462E-1,4.2580408E-1,2.2779462E-1,-5.709619E-1,-3.3662036E-2,5.9428394E-1,-4.0179636E-2,5.5005664E-1,2.667219E-2,-7.7890116E-1,8.200001E-2,8.1223905E-2,6.640762E-2,2.2242477E-2,-9.102806E-2,-7.4888803E-3,3.608666E-2,-2.1729382E-2],"categories":[],"categories_nodes":[],"categories_segments":[],"categories_sizes":[],"default_left":[0,0,0,0,0,0,0,0,0,0,0,0,0,0,0,0,0,0,0],"id":34,"left_children":[1,3,5,7,9,-1,11,-1,13,-1,15,-1,17,-1,-1,-1,-1,-1,-1],"loss_changes":[2.4458666E0,2.1775475E0,1.2340205E0,1.4124911E0,1.737098E0,0E0,7.3873305E-1,0E0,1.3163924E-2,0E0,6.0600567E-1,0E0,3.4843618E-1,0E0,0E0,0E0,0E0,0E0,0E0],"parents":[2147483647,0,0,1,1,2,2,3,3,4,4,6,6,8,8,10,10,12,12],"right_children":[2,4,6,8,10,-1,12,-1,14,-1,16,-1,18,-1,-1,-1,-1,-1,-1],"split_conditions":[6.66608E-1,-3.4040886E-1,-4.6128675E-1,2.2413191E-1,-1.201967E0,-3.3662036E-2,2.7851632E-1,-4.0179636E-2,-9.59334E-1,2.667219E-2,1.5988687E0,8.200001E-2,-7.8601706E-1,6.640762E-2,2.2242477E-2,-9.102806E-2,-7.4888803E-3,3.608666E-2,-2.1729382E-2],"split_indices":[1,9,0,0,12,0,9,0,9,0,10,0,8,0,0,0,0,0,0],"split_type":[0,0,0,0,0,0,0,0,0,0,0,0,0,0,0,0,0,0,0],"sum_hessian":[1.9701761E1,1.2652349E1,7.049412E0,4.8724494E0,7.7798996E0,1.0952182E0,5.9541936E0,1.5660727E0,3.306377E0,1.4909428E0,6.2889566E0,3.7195551E0,2.2346382E0,1.6909939E0,1.615383E0,5.053E0,1.2359565E0,1.0459558E0,1.1886824E0],"tree_param":{"num_deleted":"0","num_feature":"13","num_nodes":"19","size_leaf_vector":"1"}},{"base_weights":[1.4024155E-2,-2.4973561E-1,4.0028206E-1,-5.0339156E-1,2.3049279E-1,-3.041372E-2,5.595789E-1,1.9224271E-2,-8.1075124E-2,-3.134655E-2,6.202924E-2,5.8408536E-2,7.7464096E-2,-4.7330495E-2,3.513037E-1,-1.7731657E-2,2.7448991E-2,-2.9116828E-4,5.3234376E-2],"categories":[],"categories_nodes":[],"categories_segments":[],"categories_sizes":[],"default_left":[0,0,0,0,0,0,0,0,0,0,0,0,0,0,0,0,0,0,0],"id":35,"left_children":[1,3,5,7,9,-1,11,13,-1,-1,-1,15,-1,-1,17,-1,-1,-1,-1],"loss_changes":[2.2177582E0,1.6957159E0,1.1597979E0,1.4291368E0,1.2902726E0,0E0,7.679446E-1,8.590567E-1,0E0,0E0,0E0,2.1915336E-1,0E0,0E0,2.0059422E-1,0E0,0E0,0E0,0E0],"parents":[2147483647,0,0,1,1,2,2,3,3,4,4,6,6,7,7,11,11,14,14],"right_children":[2,4,6,8,10,-1,12,14,-1,-1,-1,16,-1,-1,18,-1,-1,-1,-1],"split_conditions":[5.9722745E-1,1.0154754E0,-4.6128675E-1,-6.102614E-1,5.6684124E-1,-3.041372E-2,5.0521162E-3,9.0955055E-1,-8.1075124E-2,-3.134655E-2,6.202924E-2,7.743696E-1,7.7464096E-2,-4.7330495E-2,-6.5162176E-1,-1.7731657E-2,2.7448991E-2,-2.9116828E-4,5.3234376E-2],"split_indices":[1,2,0,8,0,0,2,0,0,0,0,10,0,0,1,0,0,0,0],"split_type":[0,0,0,0,0,0,0,0,0,0,0,0,0,0,0,0,0,0,0],"sum_hessian":[1.9787281E1,1.1968161E1,7.8191204E0,7.799986E0,4.168175E0,1.2744014E0,6.544719E0,3.235681E0,4.564305E0,1.8217646E0,2.3464105E0,2.3469918E0,4.1977277E0,1.1317825E0,2.1038985E0,1.2082739E0,1.1387178E0,1.0443952E0,1.0595033E0],"tree_param":{"num_deleted":"0","num_feature":"13","num_nodes":"19","size_leaf_vector":"1"}},{"base_weights":[-1.8945567E-2,-2.4695097E-1,3.3745104E-1,-4.7756732E-1,2.4669555E-1,-2.9340759E-2,4.98975E-1,2.4570405E-2,-7.3704284E-1,-2.621453E-2,6.630462E-2,3.660343E-3,6.521594E-1,-3.4635823E-2,2.7775085E-2,-9.016743E-2,-2.7444685E-2,2.4949022E-2,7.69664E-2],"categories":[],"categories_nodes":[],"categories_segments":[],"categories_sizes":[],"default_left":[0,0,0,0,0,0,0,0,0,0,0,0,0,0,0,0,0,0,0],"id":36,"left_children":[1,3,5,7,9,-1,11,13,15,-1,-1,-1,17,-1,-1,-1,-1,-1,-1],"loss_changes":[1.657362E0,1.5283626E0,9.595432E-1,1.1628146E0,1.1493374E0,0E0,4.5234144E-1,4.6818087E-1,1.9613671E-1,0E0,0E0,0E0,4.4121027E-2,0E0,0E0,0E0,0E0,0E0,0E0],"parents":[2147483647,0,0,1,1,2,2,3,3,4,4,6,6,7,7,8,8,12,12],"right_children":[2,4,6,8,10,-1,12,14,16,-1,-1,-1,18,-1,-1,-1,-1,-1,-1],"split_conditions":[5.2784693E-1,1.0154754E0,-4.6128675E-1,-6.102614E-1,2.7967012E-1,-2.9340759E-2,3.6350954E-2,9.392694E-1,1.2480494E0,-2.621453E-2,6.630462E-2,3.660343E-3,5.0521162E-3,-3.4635823E-2,2.7775085E-2,-9.016743E-2,-2.7444685E-2,2.4949022E-2,7.69664E-2],"split_indices":[1,2,0,8,10,0,6,10,6,0,0,0,2,0,0,0,0,0,0],"split_type":[0,0,0,0,0,0,0,0,0,0,0,0,0,0,0,0,0,0,0],"sum_hessian":[1.8370186E1,1.1390306E1,6.9798803E0,7.78566E0,3.6046467E0,1.2563809E0,5.7235E0,2.9609427E0,4.824717E0,1.7888212E0,1.8158253E0,1.7326428E0,3.990857E0,1.0518593E0,1.9090834E0,2.858319E0,1.9663979E0,1.6070378E0,2.383819E0],"tree_param":{"num_deleted":"0","num_feature":"13","num_nodes":"19","size_leaf_vector":"1"}},{"base_weights":[1.2148373E-1,-8.165976E-2,4.2936027E-1,-3.5199348E-2,5.290625E-1,-2.219144E-2,7.088206E-1,-4.0041417E-1,5.630147E-2,3.3674103E-1,8.665105E-2,-8.087646E-3,-5.2222665E-2,6.268169E-2,-2.5107188E-2],"categories":[],"categories_nodes":[],"categories_segments":[],"categories_sizes":[],"default_left":[0,0,0,0,0,0,0,0,0,0,0,0,0,0,0],"id":37,"left_children":[1,-1,3,-1,5,7,9,11,-1,13,-1,-1,-1,-1,-1],"loss_changes":[5.6320586E0,0E0,1.3098531E0,0E0,1.3228347E0,1.1580025E0,2.9362154E-1,8.012569E-2,0E0,9.426632E-1,0E0,0E0,0E0,0E0,0E0],"parents":[2147483647,0,0,2,2,4,4,5,5,6,6,7,7,9,9],"right_children":[2,-1,4,-1,6,8,10,12,-1,14,-1,-1,-1,-1,-1],"split_conditions":[8.982147E-2,-8.165976E-2,-1.0053711E0,-3.5199348E-2,-5.128607E-1,1.0998342E0,4.206877E-1,6.727587E-1,5.630147E-2,-1.3069516E-1,8.665105E-2,-8.087646E-3,-5.2222665E-2,6.268169E-2,-2.5107188E-2],"split_indices":[7,0,2,0,1,7,7,12,0,12,0,0,0,0,0],"split_type":[0,0,0,0,0,0,0,0,0,0,0,0,0,0,0],"sum_hessian":[1.7286713E1,3.8632543E0,1.3423458E1,1.2326777E0,1.2190781E1,3.2132952E0,8.977486E0,2.143627E0,1.0696683E0,3.6055117E0,5.3719735E0,1.0508876E0,1.0927392E0,2.3697336E0,1.2357782E0],"tree_param":{"num_deleted":"0","num_feature":"13","num_nodes":"15","size_leaf_vector":"1"}},{"base_weights":[-2.0674475E-2,-2.7045146E-1,3.9464107E-1,2.1050577E-1,-4.4971263E-1,-1.1777903E-1,6.481523E-2,-2.9880378E-2,5.7049412E-2,2.3016004E-2,-6.4374864E-1,-5.485118E-2,3.6842756E-2,-7.7286655E-1,-2.5934263E-3,-2.2092072E-2,-8.539706E-2],"categories":[],"categories_nodes":[],"categories_segments":[],"categories_sizes":[],"default_left":[0,0,0,0,0,0,0,0,0,0,0,0,0,0,0,0,0],"id":38,"left_children":[1,3,5,7,9,11,-1,-1,-1,-1,13,-1,-1,15,-1,-1,-1],"loss_changes":[1.950835E0,1.1028945E0,9.964212E-1,8.775027E-1,1.3140414E0,8.702606E-1,0E0,0E0,0E0,0E0,5.4942966E-1,0E0,0E0,7.411504E-2,0E0,0E0,0E0],"parents":[2147483647,0,0,1,1,2,2,3,3,4,4,5,5,10,10,13,13],"right_children":[2,4,6,8,10,12,-1,-1,-1,-1,14,-1,-1,16,-1,-1,-1],"split_conditions":[5.9722745E-1,-6.498714E-1,-1.1857743E-1,2.2413191E-1,-1.201967E0,5.1026374E-1,6.481523E-2,-2.9880378E-2,5.7049412E-2,2.3016004E-2,1.5949693E0,-5.485118E-2,3.6842756E-2,-6.939546E-1,-2.5934263E-3,-2.2092072E-2,-8.539706E-2],"split_indices":[1,9,0,0,12,2,0,0,0,0,0,0,0,8,0,0,0],"split_type":[0,0,0,0,0,0,0,0,0,0,0,0,0,0,0,0,0],"sum_hessian":[1.6776848E1,1.0694076E1,6.0827723E0,2.8563092E0,7.837766E0,2.190514E0,3.8922582E0,1.2532213E0,1.603088E0,1.6989014E0,6.138865E0,1.0935698E0,1.0969443E0,4.870089E0,1.2687757E0,1.1010326E0,3.7690566E0],"tree_param":{"num_deleted":"0","num_feature":"13","num_nodes":"17","size_leaf_vector":"1"}},{"base_weights":[-8.434257E-3,-5.504135E-1,5.8065206E-1,-7.781813E-2,-7.753638E-2,7.168587E-1,-1.8141525E-2,3.0885303E-2,-5.7236493E-2,7.95148E-2,1.4645653E-2],"categories":[],"categories_nodes":[],"categories_segments":[],"categories_sizes":[],"default_left":[0,0,0,0,0,0,0,0,0,0,0],"id":39,"left_children":[1,3,5,7,-1,9,-1,-1,-1,-1,-1],"loss_changes":[5.458815E0,8.8549495E-1,9.811721E-1,9.379943E-1,0E0,2.0321274E-1,0E0,0E0,0E0,0E0,0E0],"parents":[2147483647,0,0,1,1,2,2,3,3,5,5],"right_children":[2,4,6,8,-1,10,-1,-1,-1,-1,-1],"split_conditions":[4.9034375E-1,-6.102614E-1,1.5406533E0,4.329471E-1,-7.753638E-2,1.25869E0,-1.8141525E-2,3.0885303E-2,-5.7236493E-2,7.95148E-2,1.4645653E-2],"split_indices":[7,8,8,5,0,3,0,0,0,0,0],"split_type":[0,0,0,0,0,0,0,0,0,0,0],"sum_hessian":[1.50966425E1,7.8968887E0,7.199754E0,2.9807024E0,4.9161863E0,6.1583734E0,1.0413812E0,1.8835187E0,1.0971837E0,5.0686707E0,1.0897022E0],"tree_param":{"num_deleted":"0","num_feature":"13","num_nodes":"11","size_leaf_vector":"1"}},{"base_weights":[5.456048E-2,-7.891792E-2,3.2617873E-1,4.9056637E-1,-2.4244516E-1,2.4904883E-1,7.846976E-2,-4.6472427E-2,8.532651E-3,5.7165676E-1,-2.8389746E-1,6.780151E-3,7.636762E-2,1.42292455E-2,-5.2239265E-2],"categories":[],"categories_nodes":[],"categories_segments":[],"categories_sizes":[],"default_left":[0,0,0,0,0,0,0,0,0,0,0,0,0,0,0],"id":40,"left_children":[1,-1,3,5,7,9,-1,-1,-1,11,13,-1,-1,-1,-1],"loss_changes":[4.07128E0,0E0,1.3618302E0,5.6079865E-1,3.0566695E-1,1.4192003E0,0E0,0E0,0E0,4.2091298E-1,4.2244005E-1,0E0,0E0,0E0,0E0],"parents":[2147483647,0,0,2,2,3,3,4,4,5,5,9,9,10,10],"right_children":[2,-1,4,6,8,10,-1,-1,-1,12,14,-1,-1,-1,-1],"split_conditions":[8.982147E-2,-7.891792E-2,7.60227E-2,3.9565727E-1,-2.3811868E-1,-3.9059654E-1,7.846976E-2,-4.6472427E-2,8.532651E-3,4.9034375E-1,-3.4040886E-1,6.780151E-3,7.636762E-2,1.42292455E-2,-5.2239265E-2],"split_indices":[7,0,8,11,11,3,0,0,0,7,9,0,0,0,0],"split_type":[0,0,0,0,0,0,0,0,0,0,0,0,0,0,0],"sum_hessian":[1.5641714E1,3.345127E0,1.2296587E1,9.645402E0,2.6511855E0,6.310467E0,3.334935E0,1.3308424E0,1.3203431E0,3.8857028E0,2.4247642E0,1.4455926E0,2.4401102E0,1.014762E0,1.4100021E0],"tree_param":{"num_deleted":"0","num_feature":"13","num_nodes":"15","size_leaf_vector":"1"}},{"base_weights":[-1.5582823E-2,-4.2635608E-1,4.579424E-1,-6.586121E-1,1.6215718E-1,8.014532E-2,-1.0764534E-2,3.8319242E-3,-7.8070484E-2,-1.9146109E-2,3.8613588E-2,-3.856953E-1,5.7041187E-2,-6.7520626E-2,4.9051833E-3],"categories":[],"categories_nodes":[],"categories_segments":[],"categories_sizes":[],"default_left":[0,0,0,0,0,0,0,0,0,0,0,0,0,0,0],"id":41,"left_children":[1,3,5,7,9,-1,11,-1,-1,-1,-1,13,-1,-1,-1],"loss_changes":[3.4796622E0,1.4134741E0,1.3491224E0,6.299839E-1,3.517405E-1,0E0,1.2022922E0,0E0,0E0,0E0,0E0,4.5310196E-1,0E0,0E0,0E0],"parents":[2147483647,0,0,1,1,2,2,3,3,4,4,6,6,11,11],"right_children":[2,4,6,8,10,-1,12,-1,-1,-1,-1,14,-1,-1,-1],"split_conditions":[5.2517176E-1,1.0135105E0,1.3274659E0,-1.201967E0,1.4206351E-1,8.014532E-2,1.0998342E0,3.8319242E-3,-7.8070484E-2,-1.9146109E-2,3.8613588E-2,-7.903828E-1,5.7041187E-2,-6.7520626E-2,4.9051833E-3],"split_indices":[7,1,5,12,7,0,7,0,0,0,0,1,0,0,0],"split_type":[0,0,0,0,0,0,0,0,0,0,0,0,0,0,0],"sum_hessian":[1.5885459E1,8.559706E0,7.325753E0,6.0521293E0,2.5075765E0,3.8178003E0,3.507953E0,1.0044819E0,5.047647E0,1.028678E0,1.4788984E0,2.336789E0,1.1711643E0,1.0706862E0,1.2661026E0],"tree_param":{"num_deleted":"0","num_feature":"13","num_nodes":"15","size_leaf_vector":"1"}},{"base_weights":[1.8625192E-2,-7.774877E-2,2.8825623E-1,5.1379E-1,-1.5896188E-1,-3.8074448E-3,6.7308795E-1,-5.611465E-1,3.909965E-2,8.112361E-2,1.7133359E-2,-6.9900095E-2,-1.6122745E-2],"categories":[],"categories_nodes":[],"categories_segments":[],"categories_sizes":[],"default_left":[0,0,0,0,0,0,0,0,0,0,0,0,0],"id":42,"left_children":[1,-1,3,5,7,-1,9,11,-1,-1,-1,-1,-1],"loss_changes":[3.534677E0,0E0,1.317265E0,7.6229763E-1,1.2966841E0,0E0,3.1546402E-1,6.503451E-2,0E0,0E0,0E0,0E0,0E0],"parents":[2147483647,0,0,2,2,3,3,4,4,6,6,7,7],"right_children":[2,-1,4,6,8,-1,10,12,-1,-1,-1,-1,-1],"split_conditions":[8.982147E-2,-7.774877E-2,1.3274659E0,-3.740997E-1,8.38624E-1,-3.8074448E-3,8.974415E-1,4.584664E-1,3.909965E-2,8.112361E-2,1.7133359E-2,-6.9900095E-2,-1.6122745E-2],"split_indices":[7,0,5,1,7,0,9,1,0,0,0,0,0],"split_type":[0,0,0,0,0,0,0,0,0,0,0,0,0],"sum_hessian":[1.4422584E1,3.1723566E0,1.1250227E1,7.3797393E0,3.870488E0,1.8234944E0,5.556245E0,2.2238457E0,1.6466423E0,3.8730712E0,1.6831735E0,1.0976303E0,1.1262155E0],"tree_param":{"num_deleted":"0","num_feature":"13","num_nodes":"13","size_leaf_vector":"1"}},{"base_weights":[-2.1054056E-2,-7.539517E-2,2.2345765E-1,-5.7868425E-2,5.9044874E-1,5.3720184E-2,-3.8581583E-1,3.999529E-3,7.341645E-2,-8.057413E-2,5.7632983E-2],"categories":[],"categories_nodes":[],"categories_segments":[],"categories_sizes":[],"default_left":[0,0,0,0,0,0,0,0,0,0,0],"id":43,"left_children":[1,-1,3,5,7,-1,9,-1,-1,-1,-1],"loss_changes":[2.7390642E0,0E0,1.2243171E0,1.6584268E0,3.7341344E-1,0E0,2.6364589E0,0E0,0E0,0E0,0E0],"parents":[2147483647,0,0,2,2,3,3,4,4,6,6],"right_children":[2,-1,4,6,8,-1,10,-1,-1,-1,-1],"split_conditions":[8.982147E-2,-7.539517E-2,5.9722745E-1,-4.615717E-1,-5.001595E-1,5.3720184E-2,9.431081E-1,3.999529E-3,7.341645E-2,-8.057413E-2,5.7632983E-2],"split_indices":[7,0,1,5,2,0,7,0,0,0,0],"split_type":[0,0,0,0,0,0,0,0,0,0,0],"sum_hessian":[1.3344636E1,2.8171203E0,1.0527515E1,6.436089E0,4.091426E0,2.0600302E0,4.376059E0,1.1117078E0,2.9797184E0,3.1596134E0,1.2164457E0],"tree_param":{"num_deleted":"0","num_feature":"13","num_nodes":"11","size_leaf_vector":"1"}},{"base_weights":[5.1761672E-2,-5.90592E-1,4.021367E-1,-7.4891E-2,-1.476176E-2,6.498332E-1,-5.8403205E-2,1.5113647E-2,7.704429E-2,-4.2026055E-1,5.3907912E-2,-6.3134424E-2,-3.3650827E-3],"categories":[],"categories_nodes":[],"categories_segments":[],"categories_sizes":[],"default_left":[0,0,0,0,0,0,0,0,0,0,0,0,0],"id":44,"left_children":[1,3,5,-1,-1,7,9,-1,-1,11,-1,-1,-1],"loss_changes":[3.3805935E0,2.6352632E-1,1.1366326E0,0E0,0E0,2.6521444E-1,1.1531911E0,0E0,0E0,2.424469E-1,0E0,0E0,0E0],"parents":[2147483647,0,0,1,1,2,2,5,5,6,6,9,9],"right_children":[2,4,6,-1,-1,8,10,-1,-1,12,-1,-1,-1],"split_conditions":[2.6396158E-1,1.5947752E-1,1.3274659E0,-7.4891E-2,-1.476176E-2,-7.360855E-1,1.0998342E0,1.5113647E-2,7.704429E-2,-3.047192E-1,5.3907912E-2,-6.3134424E-2,-3.3650827E-3],"split_indices":[7,7,5,0,0,11,7,0,0,1,0,0,0],"split_type":[0,0,0,0,0,0,0,0,0,0,0,0,0],"sum_hessian":[1.2965293E1,4.334012E0,8.631282E0,2.6840868E0,1.6499251E0,5.345329E0,3.2859526E0,1.4797921E0,3.8655367E0,2.2312434E0,1.0547092E0,1.033784E0,1.1974593E0],"tree_param":{"num_deleted":"0","num_feature":"13","num_nodes":"13","size_leaf_vector":"1"}},{"base_weights":[-6.977416E-3,-3.285336E-1,5.264888E-1,3.3519644E-2,-4.502469E-1,7.02526E-2,-1.3678621E-2,6.2898966E-3,-5.8173287E-1,-7.2918914E-2,-2.0155501E-1,1.0461127E-2,-4.385821E-2],"categories":[],"categories_nodes":[],"categories_segments":[],"categories_sizes":[],"default_left":[0,0,0,0,0,0,0,0,0,0,0,0,0],"id":45,"left_children":[1,3,5,-1,7,-1,-1,-1,9,-1,11,-1,-1],"loss_changes":[2.5529826E0,8.9998305E-1,7.502068E-1,0E0,5.9405506E-1,0E0,0E0,0E0,2.2720027E-1,0E0,2.8153718E-1,0E0,0E0],"parents":[2147483647,0,0,1,1,2,2,4,4,8,8,10,10],"right_children":[2,4,6,-1,8,-1,-1,-1,10,-1,12,-1,-1],"split_conditions":[6.470699E-1,-8.6971027E-1,5.781818E-1,3.3519644E-2,-9.6243405E-1,7.02526E-2,-1.3678621E-2,6.2898966E-3,5.9722745E-1,-7.2918914E-2,-6.480005E-2,1.0461127E-2,-4.385821E-2],"split_indices":[7,8,8,0,11,0,0,0,1,0,4,0,0],"split_type":[0,0,0,0,0,0,0,0,0,0,0,0,0],"sum_hessian":[1.2874445E1,8.272314E0,4.602131E0,1.0100888E0,7.2622256E0,3.590115E0,1.0120157E0,1.5876777E0,5.6745477E0,3.427235E0,2.2473128E0,1.2244073E0,1.0229056E0],"tree_param":{"num_deleted":"0","num_feature":"13","num_nodes":"13","size_leaf_vector":"1"}},{"base_weights":[-7.1689025E-3,-7.456786E-2,2.4007916E-1,-2.9945278E-1,4.7204357E-1,-4.9457036E-2,9.933584E-3,6.2288237E-1,3.0181667E-2,7.653301E-2,1.0800288E-2,-5.16815E-2,5.4016538E-2],"categories":[],"categories_nodes":[],"categories_segments":[],"categories_sizes":[],"default_left":[0,0,0,0,0,0,0,0,0,0,0,0,0],"id":46,"left_children":[1,-1,3,5,7,-1,-1,9,11,-1,-1,-1,-1],"loss_changes":[2.6687639E0,0E0,1.514494E0,3.5342366E-1,5.18468E-1,0E0,0E0,3.5436845E-1,1.1446118E0,0E0,0E0,0E0,0E0],"parents":[2147483647,0,0,2,2,3,3,4,4,7,7,8,8],"right_children":[2,-1,4,6,8,-1,-1,10,12,-1,-1,-1,-1],"split_conditions":[1.5947752E-1,-7.456786E-2,-5.128607E-1,9.431081E-1,1.3274659E0,-4.9457036E-2,9.933584E-3,7.60227E-2,7.689679E-1,7.653301E-2,1.0800288E-2,-5.16815E-2,5.4016538E-2],"split_indices":[7,0,1,7,5,0,0,8,7,0,0,0,0],"split_type":[0,0,0,0,0,0,0,0,0,0,0,0,0],"sum_hessian":[1.2635316E1,2.6635618E0,9.971754E0,2.910712E0,7.0610423E0,1.793174E0,1.117538E0,4.958633E0,2.1024094E0,3.5030465E0,1.4555863E0,1.007931E0,1.0944784E0],"tree_param":{"num_deleted":"0","num_feature":"13","num_nodes":"13","size_leaf_vector":"1"}},{"base_weights":[-5.0470624E-2,1.17461085E-1,-4.5558673E-1,-2.2794734E-1,4.2764246E-1,2.9420021E-3,-6.290918E-2,-6.924318E-2,1.97771E-1,5.797694E-1,5.785488E-4,-9.53371E-3,3.7782226E-2,6.6834845E-2,1.8570608E-2],"categories":[],"categories_nodes":[],"categories_segments":[],"categories_sizes":[],"default_left":[0,0,0,0,0,0,0,0,0,0,0,0,0,0,0],"id":47,"left_children":[1,3,5,7,9,-1,-1,-1,11,13,-1,-1,-1,-1,-1],"loss_changes":[9.401615E-1,1.1697927E0,3.57153E-1,1.2023035E0,3.5737073E-1,0E0,0E0,0E0,2.2542779E-1,1.9732714E-2,0E0,0E0,0E0,0E0,0E0],"parents":[2147483647,0,0,1,1,2,2,3,3,4,4,8,8,9,9],"right_children":[2,4,6,8,10,-1,-1,-1,12,14,-1,-1,-1,-1,-1],"split_conditions":[-4.951707E-2,5.6684124E-1,-3.4040886E-1,7.3598844E-1,8.037144E-1,2.9420021E-3,-6.290918E-2,-6.924318E-2,-1.062368E-1,-3.9059654E-1,5.785488E-4,-9.53371E-3,3.7782226E-2,6.6834845E-2,1.8570608E-2],"split_indices":[8,0,9,1,3,0,0,0,3,3,0,0,0,0,0],"split_type":[0,0,0,0,0,0,0,0,0,0,0,0,0,0,0],"sum_hessian":[1.2032837E1,9.008587E0,3.02425E0,4.3876977E0,4.620889E0,1.015635E0,2.008615E0,1.7987027E0,2.5889952E0,3.1210666E0,1.4998227E0,1.1642293E0,1.4247658E0,1.9799601E0,1.1411066E0],"tree_param":{"num_deleted":"0","num_feature":"13","num_nodes":"15","size_leaf_vector":"1"}},{"base_weights":[-5.5351374E-3,4.760194E-2,-1.6352013E-1,4.3291826E-2,-2.6694003E-1,-6.038582E-1,-2.967329E-2,-7.383453E-2,-1.3782218E-2,3.6608156E-2,-2.5851256E-1,-4.921057E-2,9.162668E-3],"categories":[],"categories_nodes":[],"categories_segments":[],"categories_sizes":[],"default_left":[0,0,0,0,0,0,0,0,0,0,0,0,0],"id":48,"left_children":[1,-1,3,-1,5,7,9,-1,-1,-1,11,-1,-1],"loss_changes":[1.1118815E0,0E0,7.927594E-1,0E0,7.794617E-1,1.5333903E-1,7.1995175E-1,0E0,0E0,0E0,4.508536E-1,0E0,0E0],"parents":[2147483647,0,0,2,2,4,4,5,5,6,6,10,10],"right_children":[2,-1,4,-1,6,8,10,-1,-1,-1,12,-1,-1],"split_conditions":[-9.59334E-1,4.760194E-2,-8.6971027E-1,4.3291826E-2,5.6684124E-1,3.9565727E-1,-6.102614E-1,-7.383453E-2,-1.3782218E-2,3.6608156E-2,1.1156386E-1,-4.921057E-2,9.162668E-3],"split_indices":[9,0,8,0,0,11,8,0,0,0,1,0,0],"split_type":[0,0,0,0,0,0,0,0,0,0,0,0,0],"sum_hessian":[1.2591806E1,2.6132586E0,9.978548E0,1.003749E0,8.974799E0,3.0701435E0,5.904656E0,1.9291314E0,1.141012E0,1.943622E0,3.9610338E0,2.1327357E0,1.828298E0],"tree_param":{"num_deleted":"0","num_feature":"13","num_nodes":"13","size_leaf_vector":"1"}},{"base_weights":[7.894813E-2,-6.915908E-2,2.935487E-1,5.4100424E-2,6.095326E-1,-2.0919508E-1,5.091951E-2,1.6757153E-2,6.888819E-2,2.4886815E-1,-6.2385768E-2,-1.0337186E-2,4.6258092E-2],"categories":[],"categories_nodes":[],"categories_segments":[],"categories_sizes":[],"default_left":[0,0,0,0,0,0,0,0,0,0,0,0,0],"id":49,"left_children":[1,-1,3,5,7,9,-1,-1,-1,11,-1,-1,-1],"loss_changes":[2.3511565E0,0E0,7.889357E-1,9.7852105E-1,4.5378447E-2,1.1655437E0,0E0,0E0,0E0,2.918731E-1,0E0,0E0,0E0],"parents":[2147483647,0,0,2,2,3,3,4,4,5,5,9,9],"right_children":[2,-1,4,6,8,10,-1,-1,-1,12,-1,-1,-1],"split_conditions":[8.982147E-2,-6.915908E-2,5.9722745E-1,8.38624E-1,-5.001595E-1,1.371228E-1,5.091951E-2,1.6757153E-2,6.888819E-2,3.8585967E-1,-6.2385768E-2,-1.0337186E-2,4.6258092E-2],"split_indices":[7,0,1,7,2,12,0,0,0,7,0,0,0],"split_type":[0,0,0,0,0,0,0,0,0,0,0,0,0],"sum_hessian":[1.1990842E1,2.1278727E0,9.862968E0,6.277316E0,3.5856526E0,4.318924E0,1.9583921E0,1.0194306E0,2.566222E0,2.2420452E0,2.076879E0,1.0415967E0,1.2004484E0],"tree_param":{"num_deleted":"0","num_feature":"13","num_nodes":"13","size_leaf_vector":"1"}},{"base_weights":[-5.99838E-2,-4.4437847E-1,3.091815E-1,-6.094379E-1,1.9142905E-2,5.847032E-1,-6.76102E-2,-7.122996E-2,-9.244184E-3,1.6524006E-2,6.892999E-2,2.392164E-2,-3.3442564E-2],"categories":[],"categories_nodes":[],"categories_segments":[],"categories_sizes":[],"default_left":[0,0,0,0,0,0,0,0,0,0,0,0,0],"id":50,"left_children":[1,3,5,7,-1,9,11,-1,-1,-1,-1,-1,-1],"loss_changes":[1.8337305E0,7.743093E-1,7.3379076E-1,2.1142948E-1,0E0,6.012869E-2,3.8462356E-1,0E0,0E0,0E0,0E0,0E0,0E0],"parents":[2147483647,0,0,1,1,2,2,3,3,5,5,6,6],"right_children":[2,4,6,8,-1,10,12,-1,-1,-1,-1,-1,-1],"split_conditions":[5.2517176E-1,1.520687E0,1.3274659E0,7.5781494E-1,1.9142905E-2,5.1026374E-1,-3.9059654E-1,-7.122996E-2,-9.244184E-3,1.6524006E-2,6.892999E-2,2.392164E-2,-3.3442564E-2],"split_indices":[7,2,5,11,0,2,3,0,0,0,0,0,0],"split_type":[0,0,0,0,0,0,0,0,0,0,0,0,0],"sum_hessian":[1.0954016E1,5.266508E0,5.6875076E0,4.214002E0,1.052506E0,2.9665103E0,2.7209976E0,3.199636E0,1.014366E0,1.1069804E0,1.8595299E0,1.3137168E0,1.4072808E0],"tree_param":{"num_deleted":"0","num_feature":"13","num_nodes":"13","size_leaf_vector":"1"}},{"base_weights":[-2.0699574E-2,-6.5960795E-2,1.5661328E-1,-3.0102414E-1,3.241701E-1,-4.685316E-2,1.1546545E-3,7.888023E-2,6.940928E-2,3.3961442E-1,-4.3798994E-2,-4.7795773E-3,4.9680334E-2],"categories":[],"categories_nodes":[],"categories_segments":[],"categories_sizes":[],"default_left":[0,0,0,0,0,0,0,0,0,0,0,0,0],"id":51,"left_children":[1,-1,3,5,7,-1,-1,9,-1,11,-1,-1,-1],"loss_changes":[1.4933286E0,0E0,8.960258E-1,1.7867136E-1,6.805429E-1,0E0,0E0,9.5744437E-1,0E0,3.0094224E-1,0E0,0E0,0E0],"parents":[2147483647,0,0,2,2,3,3,4,4,7,7,9,9],"right_children":[2,-1,4,6,8,-1,-1,10,-1,12,-1,-1,-1],"split_conditions":[8.982147E-2,-6.5960795E-2,-7.903828E-1,5.0521162E-3,7.689679E-1,-4.685316E-2,1.1546545E-3,6.727587E-1,6.940928E-2,-5.001595E-1,-4.3798994E-2,-4.7795773E-3,4.9680334E-2],"split_indices":[7,0,1,2,7,0,0,12,0,2,0,0,0],"split_type":[0,0,0,0,0,0,0,0,0,0,0,0,0],"sum_hessian":[1.1269983E1,1.8573613E0,9.4126215E0,2.3091733E0,7.1034484E0,1.1785977E0,1.1305757E0,5.0007586E0,2.1026895E0,3.5519333E0,1.4488256E0,1.2260717E0,2.3258615E0],"tree_param":{"num_deleted":"0","num_feature":"13","num_nodes":"13","size_leaf_vector":"1"}},{"base_weights":[-1.114884E-1,-3.4591338E-1,3.714795E-1,-6.8321735E-2,1.0082164E-3,-2.9948652E-2,6.881746E-2,-3.7310153E-2,2.661007E-1,-8.059963E-3,4.4520695E-2],"categories":[],"categories_nodes":[],"categories_segments":[],"categories_sizes":[],"default_left":[0,0,0,0,0,0,0,0,0,0,0],"id":52,"left_children":[1,3,5,-1,7,-1,-1,-1,9,-1,-1],"loss_changes":[1.3710452E0,9.2586106E-1,1.0706004E0,0E0,5.8484477E-1,0E0,0E0,0E0,2.5006917E-1,0E0,0E0],"parents":[2147483647,0,0,1,1,2,2,4,4,8,8],"right_children":[2,4,6,-1,8,-1,-1,-1,10,-1,-1],"split_conditions":[7.8638196E-1,3.3499584E-2,-1.0679048E0,-6.8321735E-2,5.0521162E-3,-2.9948652E-2,6.881746E-2,-3.7310153E-2,1.9430554E-1,-8.059963E-3,4.4520695E-2],"split_indices":[7,11,1,0,2,0,0,0,7,0,0],"split_type":[0,0,0,0,0,0,0,0,0,0,0],"sum_hessian":[9.974637E0,6.9062357E0,3.0684018E0,3.0101573E0,3.8960783E0,1.0013113E0,2.0670905E0,1.4468223E0,2.449256E0,1.0216373E0,1.4276186E0],"tree_param":{"num_deleted":"0","num_feature":"13","num_nodes":"11","size_leaf_vector":"1"}},{"base_weights":[7.837866E-2,-5.065509E-1,2.9942322E-1,-8.266337E-3,-6.480004E-2,4.7851002E-1,-5.590024E-2,6.267333E-1,-8.1726455E-4,-4.299401E-2,3.919601E-2,1.6236767E-2,7.157225E-2],"categories":[],"categories_nodes":[],"categories_segments":[],"categories_sizes":[],"default_left":[0,0,0,0,0,0,0,0,0,0,0,0,0],"id":53,"left_children":[1,3,5,-1,-1,7,9,11,-1,-1,-1,-1,-1],"loss_changes":[1.6838478E0,1.6357458E-1,6.140036E-1,0E0,0E0,4.5530748E-1,8.3658427E-1,8.2001925E-2,0E0,0E0,0E0,0E0,0E0],"parents":[2147483647,0,0,1,1,2,2,5,5,6,6,7,7],"right_children":[2,4,6,-1,-1,8,10,12,-1,-1,-1,-1,-1],"split_conditions":[1.9430554E-1,-7.097289E-1,1.3274659E0,-8.266337E-3,-6.480004E-2,9.694599E-2,8.38624E-1,-8.5976326E-1,-8.1726455E-4,-4.299401E-2,3.919601E-2,1.6236767E-2,7.157225E-2],"split_indices":[7,10,5,0,0,8,7,1,0,0,0,0,0],"split_type":[0,0,0,0,0,0,0,0,0,0,0,0,0],"sum_hessian":[1.0850176E1,2.621506E0,8.22867E0,1.052334E0,1.569172E0,5.2406425E0,2.9880276E0,3.7965927E0,1.4440498E0,1.6500049E0,1.3380227E0,1.0648007E0,2.731792E0],"tree_param":{"num_deleted":"0","num_feature":"13","num_nodes":"13","size_leaf_vector":"1"}},{"base_weights":[-3.0591179E-2,-3.0397522E-1,4.3119445E-1,2.844907E-1,-6.5666693E-1,6.574184E-2,6.1485744E-3,4.9432676E-2,-1.1796358E-2,-7.615576E-2,-2.0210471E-2],"categories":[],"categories_nodes":[],"categories_segments":[],"categories_sizes":[],"default_left":[0,0,0,0,0,0,0,0,0,0,0],"id":54,"left_children":[1,3,5,7,9,-1,-1,-1,-1,-1,-1],"loss_changes":[1.5322012E0,1.7554317E0,3.3934218E-1,3.5641742E-1,8.581257E-2,0E0,0E0,0E0,0E0,0E0,0E0],"parents":[2147483647,0,0,1,1,2,2,3,3,4,4],"right_children":[2,4,6,8,10,-1,-1,-1,-1,-1,-1],"split_conditions":[6.470699E-1,-4.615717E-1,1.3274659E0,1.7812294E-1,9.4413E-1,6.574184E-2,6.1485744E-3,4.9432676E-2,-1.1796358E-2,-7.615576E-2,-2.0210471E-2],"split_indices":[7,5,5,3,1,0,0,0,0,0,0],"split_type":[0,0,0,0,0,0,0,0,0,0,0],"sum_hessian":[1.0098505E1,6.557881E0,3.5406244E0,2.5299814E0,4.0278997E0,1.7137678E0,1.8268566E0,1.5128925E0,1.0170889E0,2.7239752E0,1.3039244E0],"tree_param":{"num_deleted":"0","num_feature":"13","num_nodes":"11","size_leaf_vector":"1"}},{"base_weights":[5.5920597E-2,-6.1354615E-2,2.4619915E-1,-3.81267E-2,4.8982295E-1,7.319317E-2,9.9446565E-2,-4.3580163E-2,5.9057504E-2],"categories":[],"categories_nodes":[],"categories_segments":[],"categories_sizes":[],"default_left":[0,0,0,0,0,0,0,0,0],"id":55,"left_children":[1,-1,3,-1,5,-1,7,-1,-1],"loss_changes":[1.4468442E0,0E0,1.5066787E0,0E0,5.564214E-1,0E0,1.2314845E0,0E0,0E0],"parents":[2147483647,0,0,2,2,4,4,6,6],"right_children":[2,-1,4,-1,6,-1,8,-1,-1],"split_conditions":[8.982147E-2,-6.1354615E-2,-3.740997E-1,-3.81267E-2,4.329471E-1,7.319317E-2,6.470699E-1,-4.3580163E-2,5.9057504E-2],"split_indices":[7,0,1,0,5,0,7,0,0],"split_type":[0,0,0,0,0,0,0,0,0],"sum_hessian":[9.172219E0,1.5376753E0,7.6345434E0,1.9771934E0,5.65735E0,2.951754E0,2.705596E0,1.3485519E0,1.3570442E0],"tree_param":{"num_deleted":"0","num_feature":"13","num_nodes":"9","size_leaf_vector":"1"}},{"base_weights":[5.0512236E-2,-4.148868E-1,3.1114644E-1,-5.9486576E-3,-5.53853E-2,6.268635E-1,-2.0082255E-1,7.40016E-2,1.6875073E-2,-4.5395635E-2,1.4412976E-2],"categories":[],"categories_nodes":[],"categories_segments":[],"categories_sizes":[],"default_left":[0,0,0,0,0,0,0,0,0,0,0],"id":56,"left_children":[1,3,5,-1,-1,7,9,-1,-1,-1,-1],"loss_changes":[1.3215023E0,1.6250849E-1,1.2367992E0,0E0,0E0,1.0806894E-1,3.6047894E-1,0E0,0E0,0E0,0E0],"parents":[2147483647,0,0,1,1,2,2,5,5,6,6],"right_children":[2,4,6,-1,-1,8,10,-1,-1,-1,-1],"split_conditions":[3.1620362E-1,-4.615717E-1,1.3274659E0,-5.9486576E-3,-5.53853E-2,9.694599E-2,9.431081E-1,7.40016E-2,1.6875073E-2,-4.5395635E-2,1.4412976E-2],"split_indices":[7,5,5,0,0,8,7,0,0,0,0],"split_type":[0,0,0,0,0,0,0,0,0,0,0],"sum_hessian":[8.8303585E0,2.9574966E0,5.872862E0,1.2327794E0,1.7247171E0,3.4938717E0,2.3789902E0,2.3083563E0,1.1855154E0,1.1898524E0,1.1891379E0],"tree_param":{"num_deleted":"0","num_feature":"13","num_nodes":"11","size_leaf_vector":"1"}},{"base_weights":[-2.7327873E-2,-1.8479577E-1,5.891477E-2,-4.6593004E-1,1.9454496E-1,4.571307E-3,-6.42096E-2,-2.2850681E-2,4.4620627E-1,1.3084157E-2,5.5089053E-2],"categories":[],"categories_nodes":[],"categories_segments":[],"categories_sizes":[],"default_left":[0,0,0,0,0,0,0,0,0,0,0],"id":57,"left_children":[1,3,-1,5,7,-1,-1,-1,9,-1,-1],"loss_changes":[1.1145675E0,1.0518785E0,0E0,5.225049E-1,5.8553064E-1,0E0,0E0,0E0,3.312087E-2,0E0,0E0],"parents":[2147483647,0,0,1,1,3,3,4,4,8,8],"right_children":[2,4,-1,6,8,-1,-1,-1,10,-1,-1],"split_conditions":[1.0998342E0,5.2784693E-1,5.891477E-2,-4.615717E-1,2.4654758E-1,4.571307E-3,-6.42096E-2,-2.2850681E-2,4.7292975E-1,1.3084157E-2,5.5089053E-2],"split_indices":[7,1,0,5,7,0,0,0,7,0,0],"split_type":[0,0,0,0,0,0,0,0,0,0,0],"sum_hessian":[9.359973E0,8.013343E0,1.3466299E0,4.471324E0,3.5420184E0,1.3348876E0,3.1364365E0,1.3554555E0,2.186563E0,1.1056437E0,1.0809191E0],"tree_param":{"num_deleted":"0","num_feature":"13","num_nodes":"11","size_leaf_vector":"1"}},{"base_weights":[-1.7580139E-2,-1.7202584E-1,5.736355E-2,2.794239E-1,-3.9803332E-1,-4.8170704E-3,4.7949005E-2,1.3282849E-2,-5.7368606E-1,-7.307324E-2,-1.4368752E-2],"categories":[],"categories_nodes":[],"categories_segments":[],"categories_sizes":[],"default_left":[0,0,0,0,0,0,0,0,0,0,0],"id":58,"left_children":[1,3,-1,5,7,-1,-1,-1,9,-1,-1],"loss_changes":[1.0020994E0,9.901068E-1,0E0,2.4994916E-1,6.499226E-1,0E0,0E0,0E0,2.198888E-1,0E0,0E0],"parents":[2147483647,0,0,1,1,3,3,4,4,8,8],"right_children":[2,4,-1,6,8,-1,-1,-1,10,-1,-1],"split_conditions":[1.0998342E0,-4.615717E-1,5.736355E-2,1.9430554E-1,-7.086009E-1,-4.8170704E-3,4.7949005E-2,1.3282849E-2,6.470699E-1,-7.307324E-2,-1.4368752E-2],"split_indices":[7,5,0,7,8,0,0,0,7,0,0],"split_type":[0,0,0,0,0,0,0,0,0,0,0],"sum_hessian":[8.893902E0,7.6139174E0,1.2799847E0,2.4612417E0,5.152676E0,1.2210621E0,1.2401795E0,1.3416653E0,3.8110106E0,2.2792046E0,1.5318061E0],"tree_param":{"num_deleted":"0","num_feature":"13","num_nodes":"11","size_leaf_vector":"1"}},{"base_weights":[1.5976617E-2,-5.7201255E-2,1.681015E-1,-2.907619E-1,3.7764278E-1,7.138112E-3,-4.984473E-2,5.975996E-1,-7.2563128E-3,6.756433E-2,2.0169435E-2],"categories":[],"categories_nodes":[],"categories_segments":[],"categories_sizes":[],"default_left":[0,0,0,0,0,0,0,0,0,0,0],"id":59,"left_children":[1,-1,3,5,7,-1,-1,9,-1,-1,-1],"loss_changes":[9.995163E-1,0E0,9.555791E-1,2.8547814E-1,6.844315E-1,0E0,0E0,1.4461279E-3,0E0,0E0,0E0],"parents":[2147483647,0,0,2,2,3,3,4,4,7,7],"right_children":[2,-1,4,6,8,-1,-1,10,-1,-1,-1],"split_conditions":[8.982147E-2,-5.7201255E-2,-5.128607E-1,-7.813552E-1,5.879789E-1,7.138112E-3,-4.984473E-2,6.727587E-1,-7.2563128E-3,6.756433E-2,2.0169435E-2],"split_indices":[7,0,1,11,9,0,0,12,0,0,0],"split_type":[0,0,0,0,0,0,0,0,0,0,0],"sum_hessian":[9.099301E0,1.3029648E0,7.796336E0,2.3225954E0,5.4737406E0,1.0857189E0,1.2368765E0,3.4572446E0,2.016496E0,2.297723E0,1.1595216E0],"tree_param":{"num_deleted":"0","num_feature":"13","num_nodes":"11","size_leaf_vector":"1"}},{"base_weights":[1.0344943E-1,-2.3482612E-1,4.634196E-1,1.8266972E-2,-5.4244757E-2,7.265643E-3,5.785503E-2,3.5602577E-2,-3.0463448E-2],"categories":[],"categories_nodes":[],"categories_segments":[],"categories_sizes":[],"default_left":[0,0,0,0,0,0,0,0,0],"id":60,"left_children":[1,3,5,7,-1,-1,-1,-1,-1],"loss_changes":[1.326145E0,4.6283957E-1,1.9098377E-1,5.620533E-1,0E0,0E0,0E0,0E0,0E0],"parents":[2147483647,0,0,1,1,2,2,3,3],"right_children":[2,4,6,8,-1,-1,-1,-1,-1],"split_conditions":[4.9034375E-1,4.329471E-1,-5.001595E-1,-6.102614E-1,-5.4244757E-2,7.265643E-3,5.785503E-2,3.5602577E-2,-3.0463448E-2],"split_indices":[7,5,2,8,0,0,0,0,0],"split_type":[0,0,0,0,0,0,0,0,0],"sum_hessian":[8.99697E0,4.81748E0,4.17949E0,3.159031E0,1.658449E0,1.3223617E0,2.8571284E0,1.4938562E0,1.6651747E0],"tree_param":{"num_deleted":"0","num_feature":"13","num_nodes":"9","size_leaf_vector":"1"}},{"base_weights":[-5.8076084E-3,-2.3201855E-1,3.9009622E-1,2.741893E-1,-5.942054E-1,6.139781E-2,6.2183035E-4,-6.8168812E-3,4.9328737E-2,-7.135531E-2,-2.2956682E-2],"categories":[],"categories_nodes":[],"categories_segments":[],"categories_sizes":[],"default_left":[0,0,0,0,0,0,0,0,0,0,0],"id":61,"left_children":[1,3,5,7,9,-1,-1,-1,-1,-1,-1],"loss_changes":[9.5463943E-1,1.4036765E0,3.2976502E-1,2.966711E-1,2.1609545E-2,0E0,0E0,0E0,0E0,0E0,0E0],"parents":[2147483647,0,0,1,1,2,2,3,3,4,4],"right_children":[2,4,6,8,10,-1,-1,-1,-1,-1,-1],"split_conditions":[6.470699E-1,-4.615717E-1,1.3274659E0,1.9430554E-1,5.9722745E-1,6.139781E-2,6.2183035E-4,-6.8168812E-3,4.9328737E-2,-7.135531E-2,-2.2956682E-2],"split_indices":[7,5,5,7,1,0,0,0,0,0,0],"split_type":[0,0,0,0,0,0,0,0,0,0,0],"sum_hessian":[8.648855E0,5.7674246E0,2.8814301E0,2.5067897E0,3.260635E0,1.4413873E0,1.4400429E0,1.2470467E0,1.259743E0,1.735666E0,1.5249687E0],"tree_param":{"num_deleted":"0","num_feature":"13","num_nodes":"11","size_leaf_vector":"1"}},{"base_weights":[3.31596E-2,-5.5330247E-2,1.9678831E-1,-1.7280662E-1,4.0736473E-1,-3.7454795E-2,1.4884817E-2,6.262376E-2,5.0689943E-2,-1.7092863E-2,2.4535188E-2],"categories":[],"categories_nodes":[],"categories_segments":[],"categories_sizes":[],"default_left":[0,0,0,0,0,0,0,0,0,0,0],"id":62,"left_children":[1,-1,3,5,7,-1,-1,-1,9,-1,-1],"loss_changes":[9.659878E-1,0E0,6.7130053E-1,2.8316176E-1,3.75485E-1,0E0,0E0,0E0,1.7445779E-1,0E0,0E0],"parents":[2147483647,0,0,2,2,3,3,4,4,8,8],"right_children":[2,-1,4,6,8,-1,-1,-1,10,-1,-1],"split_conditions":[8.982147E-2,-5.5330247E-2,5.0521162E-3,6.470699E-1,4.0494075E-1,-3.7454795E-2,1.4884817E-2,6.262376E-2,7.689679E-1,-1.7092863E-2,2.4535188E-2],"split_indices":[7,0,2,7,12,0,0,0,7,0,0],"split_type":[0,0,0,0,0,0,0,0,0,0,0],"sum_hessian":[7.9317026E0,1.2107608E0,6.7209415E0,2.5045042E0,4.2164373E0,1.4380937E0,1.0664105E0,2.144625E0,2.0718124E0,1.0258379E0,1.0459744E0],"tree_param":{"num_deleted":"0","num_feature":"13","num_nodes":"11","size_leaf_vector":"1"}},{"base_weights":[4.1325897E-2,-4.882663E-2,2.592957E-1,4.711229E-1,-1.8900445E-2,8.870644E-3,6.1122973E-2],"categories":[],"categories_nodes":[],"categories_segments":[],"categories_sizes":[],"default_left":[0,0,0,0,0,0,0],"id":63,"left_children":[1,-1,3,5,-1,-1,-1],"loss_changes":[1.1257416E0,0E0,7.3334837E-1,2.0799553E-1,0E0,0E0,0E0],"parents":[2147483647,0,0,2,2,3,3],"right_children":[2,-1,4,6,-1,-1,-1],"split_conditions":[1.9430554E-1,-4.882663E-2,1.3274659E0,-2.8338838E-1,-1.8900445E-2,8.870644E-3,6.1122973E-2],"split_indices":[7,0,5,11,0,0,0],"split_type":[0,0,0,0,0,0,0],"sum_hessian":[7.6553936E0,1.8705449E0,5.7848487E0,3.893985E0,1.8908639E0,1.4820147E0,2.4119704E0],"tree_param":{"num_deleted":"0","num_feature":"13","num_nodes":"7","size_leaf_vector":"1"}},{"base_weights":[3.8986046E-2,-9.505221E-2,5.4015797E-2,1.6672468E-1,-4.8672432E-1,-2.967907E-2,3.560447E-1,-1.5751947E-2,-5.8854926E-2,5.0787896E-2,4.203822E-3],"categories":[],"categories_nodes":[],"categories_segments":[],"categories_sizes":[],"default_left":[0,0,0,0,0,0,0,0,0,0,0],"id":64,"left_children":[1,3,-1,5,7,-1,9,-1,-1,-1,-1],"loss_changes":[6.785993E-1,9.236946E-1,0E0,6.0326E-1,2.6196718E-2,0E0,1.9227058E-1,0E0,0E0,0E0,0E0],"parents":[2147483647,0,0,1,1,3,3,4,4,6,6],"right_children":[2,4,-1,6,8,-1,10,-1,-1,-1,-1],"split_conditions":[1.0998342E0,6.727587E-1,5.4015797E-2,1.5947752E-1,-4.474685E-1,-2.967907E-2,9.392694E-1,-1.5751947E-2,-5.8854926E-2,5.0787896E-2,4.203822E-3],"split_indices":[7,12,0,7,3,0,10,0,0,0,0],"split_type":[0,0,0,0,0,0,0,0,0,0,0],"sum_hessian":[8.337472E0,7.2174954E0,1.1199764E0,4.6703553E0,2.5471401E0,1.1897656E0,3.4805899E0,1.2034129E0,1.3437272E0,1.9299626E0,1.5506272E0],"tree_param":{"num_deleted":"0","num_feature":"13","num_nodes":"11","size_leaf_vector":"1"}},{"base_weights":[7.2503026E-4,-2.9049173E-1,3.3077282E-1,5.9747547E-3,-4.6751793E-2,-1.0795429E-2,6.640603E-2],"categories":[],"categories_nodes":[],"categories_segments":[],"categories_sizes":[],"default_left":[0,0,0,0,0,0,0],"id":65,"left_children":[1,3,5,-1,-1,-1,-1],"loss_changes":[9.521745E-1,3.5432193E-1,7.505485E-1,0E0,0E0,0E0,0E0],"parents":[2147483647,0,0,1,1,2,2],"right_children":[2,4,6,-1,-1,-1,-1],"split_conditions":[5.2517176E-1,-4.615717E-1,-7.903828E-1,5.9747547E-3,-4.6751793E-2,-1.0795429E-2,6.640603E-2],"split_indices":[7,5,1,0,0,0,0],"split_type":[0,0,0,0,0,0,0],"sum_hessian":[7.9068694E0,4.2642074E0,3.642662E0,1.6541098E0,2.6100974E0,1.8644551E0,1.7782068E0],"tree_param":{"num_deleted":"0","num_feature":"13","num_nodes":"7","size_leaf_vector":"1"}},{"base_weights":[2.149487E-2,-4.4181682E-2,1.9212222E-1,4.314669E-1,-1.6776834E-1,5.534771E-2,9.028825E-4,-3.1362098E-2,5.8450955E-3],"categories":[],"categories_nodes":[],"categories_segments":[],"categories_sizes":[],"default_left":[0,0,0,0,0,0,0,0,0],"id":66,"left_children":[1,-1,3,5,7,-1,-1,-1,-1],"loss_changes":[7.827865E-1,0E0,6.881874E-1,2.3073131E-1,1.3630278E-1,0E0,0E0,0E0,0E0],"parents":[2147483647,0,0,2,2,3,3,4,4],"right_children":[2,-1,4,6,8,-1,-1,-1,-1],"split_conditions":[1.9430554E-1,-4.4181682E-2,1.3274659E0,9.694599E-2,8.38624E-1,5.534771E-2,9.028825E-4,-3.1362098E-2,5.8450955E-3],"split_indices":[7,0,5,8,7,0,0,0,0],"split_type":[0,0,0,0,0,0,0,0,0],"sum_hessian":[7.828229E0,1.6792159E0,6.149013E0,3.5735471E0,2.575466E0,2.5320373E0,1.0415099E0,1.330975E0,1.2444909E0],"tree_param":{"num_deleted":"0","num_feature":"13","num_nodes":"9","size_leaf_vector":"1"}},{"base_weights":[7.30216E-2,-5.1395934E-2,2.2893913E-1,-2.5053257E-2,4.096122E-1,6.1056513E-2,1.7792132E-1,-2.7001385E-2,4.9610473E-2],"categories":[],"categories_nodes":[],"categories_segments":[],"categories_sizes":[],"default_left":[0,0,0,0,0,0,0,0,0],"id":67,"left_children":[1,-1,3,-1,5,-1,7,-1,-1],"loss_changes":[8.7246513E-1,0E0,7.2705257E-1,0E0,1.5279305E-1,0E0,7.068007E-1,0E0,0E0],"parents":[2147483647,0,0,2,2,4,4,6,6],"right_children":[2,-1,4,-1,6,-1,8,-1,-1],"split_conditions":[8.982147E-2,-5.1395934E-2,-8.5976326E-1,-2.5053257E-2,-3.9851314E-1,6.1056513E-2,5.2517176E-1,-2.7001385E-2,4.9610473E-2],"split_indices":[7,0,1,0,12,0,7,0,0],"split_type":[0,0,0,0,0,0,0,0,0],"sum_hessian":[7.2473197E0,1.0390953E0,6.2082243E0,1.5932862E0,4.614938E0,1.5956888E0,3.0192492E0,1.3168256E0,1.7024236E0],"tree_param":{"num_deleted":"0","num_feature":"13","num_nodes":"9","size_leaf_vector":"1"}},{"base_weights":[-9.034967E-2,-2.6490006E-1,2.3047055E-1,1.2178218E-2,-4.0111405E-1,-3.0768488E-3,4.0805534E-2,-5.9402306E-2,1.2278672E-2],"categories":[],"categories_nodes":[],"categories_segments":[],"categories_sizes":[],"default_left":[0,0,0,0,0,0,0,0,0],"id":68,"left_children":[1,3,5,-1,7,-1,-1,-1,-1],"loss_changes":[5.3253716E-1,3.605597E-1,1.7499574E-1,0E0,5.38776E-1,0E0,0E0,0E0,0E0],"parents":[2147483647,0,0,1,1,2,2,4,4],"right_children":[2,4,6,-1,8,-1,-1,-1,-1],"split_conditions":[4.861967E-1,-9.171643E-1,1.2480494E0,1.2178218E-2,5.2784693E-1,-3.0768488E-3,4.0805534E-2,-5.9402306E-2,1.2278672E-2],"split_indices":[11,11,6,0,1,0,0,0,0],"split_type":[0,0,0,0,0,0,0,0,0],"sum_hessian":[7.41949E0,4.9180202E0,2.5014699E0,1.3087398E0,3.6092803E0,1.3468714E0,1.1545985E0,2.5401196E0,1.0691607E0],"tree_param":{"num_deleted":"0","num_feature":"13","num_nodes":"9","size_leaf_vector":"1"}},{"base_weights":[-1.710343E-2,-2.3515275E-1,2.2217211E-1,9.955879E-3,-4.185111E-1,-1.7414076E-2,4.2688605E-1,-5.8954604E-2,-6.4935586E-3,1.1745835E-2,5.494348E-2],"categories":[],"categories_nodes":[],"categories_segments":[],"categories_sizes":[],"default_left":[0,0,0,0,0,0,0,0,0,0,0],"id":69,"left_children":[1,3,5,-1,7,-1,9,-1,-1,-1,-1],"loss_changes":[5.014047E-1,3.4791675E-1,4.490701E-1,0E0,1.6830277E-1,0E0,6.194192E-2,0E0,0E0,0E0,0E0],"parents":[2147483647,0,0,1,1,2,2,4,4,6,6],"right_children":[2,4,6,-1,8,-1,10,-1,-1,-1,-1],"split_conditions":[4.9034375E-1,-6.102614E-1,-1.0679048E0,9.955879E-3,3.1620362E-1,-1.7414076E-2,2.5032488E-1,-5.8954604E-2,-6.4935586E-3,1.1745835E-2,5.494348E-2],"split_indices":[7,8,1,0,7,0,1,0,0,0,0],"split_type":[0,0,0,0,0,0,0,0,0,0,0],"sum_hessian":[7.6089134E0,3.9900513E0,3.6188622E0,1.5739359E0,2.4161153E0,1.283478E0,2.3353841E0,1.1786054E0,1.23751E0,1.2181346E0,1.1172495E0],"tree_param":{"num_deleted":"0","num_feature":"13","num_nodes":"11","size_leaf_vector":"1"}},{"base_weights":[7.8951016E-2,3.9982717E-2,-6.2971756E-2,2.1169822E-1,-2.7093172E-1,-5.1502213E-3,3.871007E-2,-4.3798644E-2,2.0375573E-3],"categories":[],"categories_nodes":[],"categories_segments":[],"categories_sizes":[],"default_left":[0,0,0,0,0,0,0,0,0],"id":70,"left_children":[1,-1,3,5,7,-1,-1,-1,-1],"loss_changes":[3.867354E-1,0E0,4.211339E-1,1.7253998E-1,2.0665148E-1,0E0,0E0,0E0,0E0],"parents":[2147483647,0,0,2,2,3,3,4,4],"right_children":[2,-1,4,6,8,-1,-1,-1,-1],"split_conditions":[-9.59334E-1,3.9982717E-2,-6.2700003E-1,5.6684124E-1,1.2522599E0,-5.1502213E-3,3.871007E-2,-4.3798644E-2,2.0375573E-3],"split_indices":[9,0,8,0,0,0,0,0,0],"split_type":[0,0,0,0,0,0,0,0,0],"sum_hessian":[6.939405E0,1.5707797E0,5.368625E0,2.3055365E0,3.0630887E0,1.2044997E0,1.1010368E0,1.6267077E0,1.4363811E0],"tree_param":{"num_deleted":"0","num_feature":"13","num_nodes":"9","size_leaf_vector":"1"}},{"base_weights":[-5.1939625E-2,-2.0350131E-1,3.330827E-2,-2.3878461E-3,-5.666864E-2,-3.615755E-2,2.3277584E-1,3.8087733E-2,-7.022533E-3],"categories":[],"categories_nodes":[],"categories_segments":[],"categories_sizes":[],"default_left":[0,0,0,0,0,0,0,0,0],"id":71,"left_children":[1,3,-1,5,-1,-1,7,-1,-1],"loss_changes":[5.4318726E-1,4.709649E-1,0E0,5.205325E-1,0E0,0E0,1.9414812E-1,0E0,0E0],"parents":[2147483647,0,0,1,1,3,3,6,6],"right_children":[2,4,-1,6,-1,-1,8,-1,-1],"split_conditions":[8.38624E-1,-7.7414796E-2,3.330827E-2,5.0521162E-3,-5.666864E-2,-3.615755E-2,4.329471E-1,3.8087733E-2,-7.022533E-3],"split_indices":[7,8,0,2,0,0,5,0,0],"split_type":[0,0,0,0,0,0,0,0,0],"sum_hessian":[7.1468177E0,5.466442E0,1.6803757E0,4.166063E0,1.3003793E0,1.4356743E0,2.7303886E0,1.6613398E0,1.0690488E0],"tree_param":{"num_deleted":"0","num_feature":"13","num_nodes":"9","size_leaf_vector":"1"}},{"base_weights":[2.1819552E-2,4.162086E-2,-1.8604611E-1,-3.9744145E-1,6.7093015E-2,-4.6993118E-2,-1.280792E-2,2.9607574E-2,-2.6131267E-2],"categories":[],"categories_nodes":[],"categories_segments":[],"categories_sizes":[],"default_left":[0,0,0,0,0,0,0,0,0],"id":72,"left_children":[1,-1,3,5,7,-1,-1,-1,-1],"loss_changes":[7.476165E-1,0E0,3.501209E-1,6.9470406E-3,3.4855404E-1,0E0,0E0,0E0,0E0],"parents":[2147483647,0,0,2,2,3,3,4,4],"right_children":[2,-1,4,6,8,-1,-1,-1,-1],"split_conditions":[-6.498714E-1,4.162086E-2,4.555157E-1,2.6396158E-1,9.405767E-1,-4.6993118E-2,-1.280792E-2,2.9607574E-2,-2.6131267E-2],"split_indices":[9,0,7,7,12,0,0,0,0],"split_type":[0,0,0,0,0,0,0,0,0],"sum_hessian":[7.1749578E0,2.1304681E0,5.04449E0,2.4382591E0,2.6062307E0,1.3345134E0,1.1037457E0,1.5935583E0,1.0126724E0],"tree_param":{"num_deleted":"0","num_feature":"13","num_nodes":"9","size_leaf_vector":"1"}},{"base_weights":[1.21796E-1,-8.553484E-2,3.5153112E-1,2.3992376E-2,-3.8290814E-2,6.5392884E-3,4.415583E-2],"categories":[],"categories_nodes":[],"categories_segments":[],"categories_sizes":[],"default_left":[0,0,0,0,0,0,0],"id":73,"left_children":[1,3,5,-1,-1,-1,-1],"loss_changes":[3.6768436E-1,5.3029794E-1,6.2782645E-2,0E0,0E0,0E0,0E0],"parents":[2147483647,0,0,1,1,2,2],"right_children":[2,4,6,-1,-1,-1,-1],"split_conditions":[1.2480494E0,-6.102614E-1,-5.0434047E-1,2.3992376E-2,-3.8290814E-2,6.5392884E-3,4.415583E-2],"split_indices":[6,8,3,0,0,0,0],"split_type":[0,0,0,0,0,0,0],"sum_hessian":[6.088136E0,3.530037E0,2.5580993E0,1.7776679E0,1.752369E0,1.0253959E0,1.5327033E0],"tree_param":{"num_deleted":"0","num_feature":"13","num_nodes":"7","size_leaf_vector":"1"}},{"base_weights":[-6.2162597E-3,-1.716356E-1,3.1848752E-1,2.3416217E-2,-3.5374907E-1,1.1208717E-3,4.659421E-2,-5.119092E-2,3.0666091E-3],"categories":[],"categories_nodes":[],"categories_segments":[],"categories_sizes":[],"default_left":[0,0,0,0,0,0,0,0,0],"id":74,"left_children":[1,3,5,-1,7,-1,-1,-1,-1],"loss_changes":[4.7960797E-1,5.181963E-1,1.316289E-1,0E0,2.8714007E-1,0E0,0E0,0E0,0E0],"parents":[2147483647,0,0,1,1,2,2,4,4],"right_children":[2,4,6,-1,8,-1,-1,-1,-1],"split_conditions":[4.861967E-1,-4.615717E-1,4.032737E-1,2.3416217E-2,8.38624E-1,1.1208717E-3,4.659421E-2,-5.119092E-2,3.0666091E-3],"split_indices":[11,5,7,0,7,0,0,0,0],"split_type":[0,0,0,0,0,0,0,0,0],"sum_hessian":[6.911489E0,4.891128E0,2.0203612E0,1.4265617E0,3.4645662E0,1.0040493E0,1.0163119E0,2.2196696E0,1.2448968E0],"tree_param":{"num_deleted":"0","num_feature":"13","num_nodes":"9","size_leaf_vector":"1"}},{"base_weights":[8.6360216E-2,4.152238E-1,-1.3288394E-1,9.076451E-3,5.473537E-2,2.5343979E-2,-3.6730456E-1,-5.4527372E-2,-2.5922095E-3],"categories":[],"categories_nodes":[],"categories_segments":[],"categories_sizes":[],"default_left":[0,0,0,0,0,0,0,0,0],"id":75,"left_children":[1,3,5,-1,-1,-1,7,-1,-1],"loss_changes":[6.3484305E-1,9.8579526E-2,5.9854484E-1,0E0,0E0,0E0,2.2170866E-1,0E0,0E0],"parents":[2147483647,0,0,1,1,2,2,6,6],"right_children":[2,4,6,-1,-1,-1,8,-1,-1],"split_conditions":[-6.2700003E-1,2.2413191E-1,-6.498714E-1,9.076451E-3,5.473537E-2,2.5343979E-2,3.3499584E-2,-5.4527372E-2,-2.5922095E-3],"split_indices":[8,0,9,0,0,0,11,0,0],"split_type":[0,0,0,0,0,0,0,0,0],"sum_hessian":[7.0395985E0,2.458296E0,4.581302E0,1.1995655E0,1.2587304E0,1.6994638E0,2.8818386E0,1.5017143E0,1.3801241E0],"tree_param":{"num_deleted":"0","num_feature":"13","num_nodes":"9","size_leaf_vector":"1"}},{"base_weights":[8.467771E-3,-2.775695E-1,2.997185E-1,-4.976324E-2,1.0276777E-2,5.2111216E-2,1.6803636E-4],"categories":[],"categories_nodes":[],"categories_segments":[],"categories_sizes":[],"default_left":[0,0,0,0,0,0,0],"id":76,"left_children":[1,3,5,-1,-1,-1,-1],"loss_changes":[6.959877E-1,4.0520552E-1,2.7133802E-1,0E0,0E0,0E0,0E0],"parents":[2147483647,0,0,1,1,2,2],"right_children":[2,4,6,-1,-1,-1,-1],"split_conditions":[4.555157E-1,1.2480494E0,1.3274659E0,-4.976324E-2,1.0276777E-2,5.2111216E-2,1.6803636E-4],"split_indices":[7,6,5,0,0,0,0],"split_type":[0,0,0,0,0,0,0],"sum_hessian":[6.3557267E0,3.2302613E0,3.1254652E0,1.8509218E0,1.3793397E0,1.363863E0,1.7616022E0],"tree_param":{"num_deleted":"0","num_feature":"13","num_nodes":"7","size_leaf_vector":"1"}},{"base_weights":[7.923341E-3,-3.2636222E-1,2.5423443E-1,4.8653125E-3,-4.79231E-2,4.6263684E-2,-1.6037798E-2,-3.872733E-2,3.5313193E-2],"categories":[],"categories_nodes":[],"categories_segments":[],"categories_sizes":[],"default_left":[0,0,0,0,0,0,0,0,0],"id":77,"left_children":[1,3,5,-1,-1,-1,7,-1,-1],"loss_changes":[7.532251E-1,2.4639595E-1,3.0306906E-1,0E0,0E0,0E0,5.824077E-1,0E0,0E0],"parents":[2147483647,0,0,1,1,2,2,6,6],"right_children":[2,4,6,-1,-1,-1,8,-1,-1],"split_conditions":[-2.3533869E-1,-6.498714E-1,4.329471E-1,4.8653125E-3,-4.79231E-2,4.6263684E-2,5.2517176E-1,-3.872733E-2,3.5313193E-2],"split_indices":[1,9,5,0,0,0,7,0,0],"split_type":[0,0,0,0,0,0,0,0,0],"sum_hessian":[7.1402345E0,2.8912807E0,4.248954E0,1.034701E0,1.8565797E0,1.9972013E0,2.2517524E0,1.098284E0,1.1534684E0],"tree_param":{"num_deleted":"0","num_feature":"13","num_nodes":"9","size_leaf_vector":"1"}},{"base_weights":[9.413027E-2,-3.6449704E-2,2.5309247E-1,4.9650732E-1,-8.777768E-2,1.175127E-2,6.026733E-2,1.8315403E-2,-3.1003261E-2],"categories":[],"categories_nodes":[],"categories_segments":[],"categories_sizes":[],"default_left":[0,0,0,0,0,0,0,0,0],"id":78,"left_children":[1,-1,3,5,7,-1,-1,-1,-1],"loss_changes":[6.2058896E-1,0E0,5.390855E-1,7.540518E-2,2.5776443E-1,0E0,0E0,0E0,0E0],"parents":[2147483647,0,0,2,2,3,3,4,4],"right_children":[2,-1,4,6,8,-1,-1,-1,-1],"split_conditions":[1.9430554E-1,-3.6449704E-2,1.3274659E0,5.0521162E-3,-3.9059654E-1,1.175127E-2,6.026733E-2,1.8315403E-2,-3.1003261E-2],"split_indices":[7,0,5,2,3,0,0,0,0],"split_type":[0,0,0,0,